{"learner":{"attributes":{"scikit_learn":"{\"_estimator_type\": \"classifier\"}"},"feature_names":[],"feature_types":[],"gradient_booster":{"model":{"cats":{"enc":[],"feature_segments":[],"sorted_idx":[]},"gbtree_model_param":{"num_parallel_tree":"1","num_trees":"400"},"iteration_indptr":[0,1,2,3,4,5,6,7,8,9,10,11,12,13,14,15,16,17,18,19,20,21,22,23,24,25,26,27,28,29,30,31,32,33,34,35,36,37,38,39,40,41,42,43,44,45,46,47,48,49,50,51,52,53,54,55,56,57,58,59,60,61,62,63,64,65,66,67,68,69,70,71,72,73,74,75,76,77,78,79,80,81,82,83,84,85,86,87,88,89,90,91,92,93,94,95,96,97,98,99,100,101,102,103,104,105,106,107,108,109,110,111,112,113,114,115,116,117,118,119,120,121,122,123,124,125,126,127,128,129,130,131,132,133,134,135,136,137,138,139,140,141,142,143,144,145,146,147,148,149,150,151,152,153,154,155,156,157,158,159,160,161,162,163,164,165,166,167,168,169,170,171,172,173,174,175,176,177,178,179,180,181,182,183,184,185,186,187,188,189,190,191,192,193,194,195,196,197,198,199,200,201,202,203,204,205,206,207,208,209,210,211,212,213,214,215,216,217,218,219,220,221,222,223,224,225,226,227,228,229,230,231,232,233,234,235,236,237,238,239,240,241,242,243,244,245,246,247,248,249,250,251,252,253,254,255,256,257,258,259,260,261,262,263,264,265,266,267,268,269,270,271,272,273,274,275,276,277,278,279,280,281,282,283,284,285,286,287,288,289,290,291,292,293,294,295,296,297,298,299,300,301,302,303,304,305,306,307,308,309,310,311,312,313,314,315,316,317,318,319,320,321,322,323,324,325,326,327,328,329,330,331,332,333,334,335,336,337,338,339,340,341,342,343,344,345,346,347,348,349,350,351,352,353,354,355,356,357,358,359,360,361,362,363,364,365,366,367,368,369,370,371,372,373,374,375,376,377,378,379,380,381,382,383,384,385,386,387,388,389,390,391,392,393,394,395,396,397,398,399,400],"tree_info":[0,0,0,0,0,0,0,0,0,0,0,0,0,0,0,0,0,0,0,0,0,0,0,0,0,0,0,0,0,0,0,0,0,0,0,0,0,0,0,0,0,0,0,0,0,0,0,0,0,0,0,0,0,0,0,0,0,0,0,0,0,0,0,0,0,0,0,0,0,0,0,0,0,0,0,0,0,0,0,0,0,0,0,0,0,0,0,0,0,0,0,0,0,0,0,0,0,0,0,0,0,0,0,0,0,0,0,0,0,0,0,0,0,0,0,0,0,0,0,0,0,0,0,0,0,0,0,0,0,0,0,0,0,0,0,0,0,0,0,0,0,0,0,0,0,0,0,0,0,0,0,0,0,0,0,0,0,0,0,0,0,0,0,0,0,0,0,0,0,0,0,0,0,0,0,0,0,0,0,0,0,0,0,0,0,0,0,0,0,0,0,0,0,0,0,0,0,0,0,0,0,0,0,0,0,0,0,0,0,0,0,0,0,0,0,0,0,0,0,0,0,0,0,0,0,0,0,0,0,0,0,0,0,0,0,0,0,0,0,0,0,0,0,0,0,0,0,0,0,0,0,0,0,0,0,0,0,0,0,0,0,0,0,0,0,0,0,0,0,0,0,0,0,0,0,0,0,0,0,0,0,0,0,0,0,0,0,0,0,0,0,0,0,0,0,0,0,0,0,0,0,0,0,0,0,0,0,0,0,0,0,0,0,0,0,0,0,0,0,0,0,0,0,0,0,0,0,0,0,0,0,0,0,0,0,0,0,0,0,0,0,0,0,0,0,0,0,0,0,0,0,0,0,0,0,0,0,0,0,0,0,0,0,0,0,0,0,0,0,0,0,0,0,0,0,0,0,0,0,0,0,0,0,0,0,0,0,0,0,0,0,0,0,0,0,0,0,0,0,0],"trees":[{"base_weights":[3.034868E-8,-2.869466E-1,3.172531E-1,-7.041334E-1,-1.7779993E-1,1.8485594E-1,4.867378E-1,-1.0534447E0,-4.7419697E-1,-1.5641122E-1,-5.25E-2,2.6606566E-1,-1.6944918E-1,3.470737E-1,7.677273E-1,-6.315908E-1,-1.3837999E0,1.1057158E-2,-6.4976543E-1,-2.2933252E-1,1.7220224E-1,1.9304901E-1,8.014269E-1,-4.5048794E-1,2.4298364E-1,5.816689E-1,2.6131267E-2,8.406929E-1,-3.3748367E-1,-1.2929548E0,1.8642174E-1,-1.1330821E-1,-1.7443905E0,1.1609772E0,-5.9490466E-1,-1.2074819E0,-1.838853E-1,-1.8326485E-1,-8.928023E-1,-6.582029E-1,4.270135E-1,2.8930026E-1,-2.1602827E-1,-3.3748367E-1,1.0220721E0,-3.173956E-2,-1.4720896E0,-4.680331E-1,1.0379564E0,2.7966532E-1,1.1791626E0,-3.8579366E-1,4.0322426E-1,6.047299E-1,1.3085773E0,4.2062603E-2,-4.6666667E-2,-1.5049694E-2,-5.368421E-2,-1.9228294E-2,1.7414099E-2,1.8572763E-2,-2.11989E-2,-5.7391305E-2,-1.189962E-2,4.484832E-2,1.4297828E-2,-5.142857E-2,3.0336746E-3,-4.2156193E-2,-3.9872145E-3,-3.544222E-2,2.1395034E-3,-4.8E-2,-5.0177826E-3,-7.839564E-3,-3.650321E-2,-5.2E-2,-6.2987288E-3,1.5509859E-2,-4.4999998E-2,5.3610965E-3,2.1745276E-2,-5.2E-2,8.894248E-4,3.4965005E-2,-4.588235E-2,3.5040785E-2,1.7414099E-2,2.9853461E-3,-4E-2,8.673796E-3,-5.4418605E-2,-2.4983048E-2,2.8790373E-2,3.5767112E-2,3.2621215E-3,4.6718173E-2,5.986687E-3,1.1668224E-2,4.082739E-2,6.4281756E-3,-3.942773E-2,1.6267339E-2,-4.2857144E-2,2.6615756E-2,-1.0301429E-2,4.2636618E-2,-3E-2],"categories":[],"categories_nodes":[],"categories_segments":[],"categories_sizes":[],"default_left":[0,0,0,0,0,0,0,0,0,0,0,0,0,0,0,0,0,0,0,0,0,0,0,0,0,0,0,0,0,0,0,0,0,0,0,0,0,0,0,0,0,0,0,0,0,0,0,0,0,0,0,0,0,0,0,0,0,0,0,0,0,0,0,0,0,0,0,0,0,0,0,0,0,0,0,0,0,0,0,0,0,0,0,0,0,0,0,0,0,0,0,0,0,0,0,0,0,0,0,0,0,0,0,0,0,0,0,0,0],"id":0,"left_children":[1,3,5,7,9,11,13,15,17,19,-1,21,23,25,27,29,31,33,35,37,39,41,43,45,47,49,51,53,55,57,59,61,63,65,67,69,71,73,75,77,79,81,83,85,87,89,91,93,95,97,99,101,103,105,107,-1,-1,-1,-1,-1,-1,-1,-1,-1,-1,-1,-1,-1,-1,-1,-1,-1,-1,-1,-1,-1,-1,-1,-1,-1,-1,-1,-1,-1,-1,-1,-1,-1,-1,-1,-1,-1,-1,-1,-1,-1,-1,-1,-1,-1,-1,-1,-1,-1,-1,-1,-1,-1,-1],"loss_changes":[1.316817E2,3.4459564E1,1.5325188E1,1.2124008E1,2.0015715E1,1.1188789E1,1.1533272E1,7.7064743E0,8.236799E0,1.433005E1,0E0,1.2176998E1,8.5511055E0,1.5244204E1,8.267635E0,1.5865161E1,1.5236633E1,1.925873E1,1.8212742E1,1.4766743E1,2.3318464E1,1.1044861E1,9.7797165E0,1.8632805E1,1.7536102E1,2.078936E1,1.3612441E1,9.493744E0,1.6684977E1,5.4259243E0,4.8662252E0,4.1387196E0,5.190178E0,1.4668255E0,1.4285093E1,6.636162E0,1.0225614E1,1.0118418E1,6.11767E0,1.2145513E1,1.5326345E1,1.0767572E1,2.0068752E1,1.4044938E1,1.3651543E0,5.5981045E0,8.154514E0,9.44989E0,1.9565935E0,7.7802887E0,5.069771E0,2.3634003E1,1.2416817E1,1.7387125E1,9.319374E0,0E0,0E0,0E0,0E0,0E0,0E0,0E0,0E0,0E0,0E0,0E0,0E0,0E0,0E0,0E0,0E0,0E0,0E0,0E0,0E0,0E0,0E0,0E0,0E0,0E0,0E0,0E0,0E0,0E0,0E0,0E0,0E0,0E0,0E0,0E0,0E0,0E0,0E0,0E0,0E0,0E0,0E0,0E0,0E0,0E0,0E0,0E0,0E0,0E0,0E0,0E0,0E0,0E0,0E0],"parents":[2147483647,0,0,1,1,2,2,3,3,4,4,5,5,6,6,7,7,8,8,9,9,11,11,12,12,13,13,14,14,15,15,16,16,17,17,18,18,19,19,20,20,21,21,22,22,23,23,24,24,25,25,26,26,27,27,28,28,29,29,30,30,31,31,32,32,33,33,34,34,35,35,36,36,37,37,38,38,39,39,40,40,41,41,42,42,43,43,44,44,45,45,46,46,47,47,48,48,49,49,50,50,51,51,52,52,53,53,54,54],"right_children":[2,4,6,8,10,12,14,16,18,20,-1,22,24,26,28,30,32,34,36,38,40,42,44,46,48,50,52,54,56,58,60,62,64,66,68,70,72,74,76,78,80,82,84,86,88,90,92,94,96,98,100,102,104,106,108,-1,-1,-1,-1,-1,-1,-1,-1,-1,-1,-1,-1,-1,-1,-1,-1,-1,-1,-1,-1,-1,-1,-1,-1,-1,-1,-1,-1,-1,-1,-1,-1,-1,-1,-1,-1,-1,-1,-1,-1,-1,-1,-1,-1,-1,-1,-1,-1,-1,-1,-1,-1,-1,-1],"split_conditions":[5.253623E-2,3.2295387E-2,3.816794E-2,2.3698506E0,1.3207264E1,5.0114E0,4.8510814E0,2.2E-2,2.857475E0,3.5955057E-2,-5.25E-2,4.2533903E0,8.388608E0,2.7433503E0,7.738033E-2,2.1276595E-2,2.5210084E-2,2.0521354E-2,2.8130671E-2,3.3739004E-2,2.19179E0,3.311258E-2,2.2808269E-2,3.0425964E-2,3.1512212E-2,2.346845E0,4.835165E-2,7.248596E-2,4.0816326E-2,1.6763661E0,2.5210084E-2,1.7308176E0,2.8614176E-2,2.5405787E-2,2.5678763E0,2.610966E-2,3.4542143E0,2.0100502E-2,4.109589E-2,4.5220003E-2,5.1587302E-2,3.0716723E-2,5.7971016E-2,2.027027E-2,6.807131E-2,7.703169E-2,5.479452E-2,7.797348E-2,7.1875E-2,5.44E-2,5.939394E-2,4.2435423E-2,6.716418E-2,5.1813472E-2,1.41637745E1,4.2062603E-2,-4.6666667E-2,-1.5049694E-2,-5.368421E-2,-1.9228294E-2,1.7414099E-2,1.8572763E-2,-2.11989E-2,-5.7391305E-2,-1.189962E-2,4.484832E-2,1.4297828E-2,-5.142857E-2,3.0336746E-3,-4.2156193E-2,-3.9872145E-3,-3.544222E-2,2.1395034E-3,-4.8E-2,-5.0177826E-3,-7.839564E-3,-3.650321E-2,-5.2E-2,-6.2987288E-3,1.5509859E-2,-4.4999998E-2,5.3610965E-3,2.1745276E-2,-5.2E-2,8.894248E-4,3.4965005E-2,-4.588235E-2,3.5040785E-2,1.7414099E-2,2.9853461E-3,-4E-2,8.673796E-3,-5.4418605E-2,-2.4983048E-2,2.8790373E-2,3.5767112E-2,3.2621215E-3,4.6718173E-2,5.986687E-3,1.1668224E-2,4.082739E-2,6.4281756E-3,-3.942773E-2,1.6267339E-2,-4.2857144E-2,2.6615756E-2,-1.0301429E-2,4.2636618E-2,-3E-2],"split_indices":[2,1,3,0,0,0,0,3,0,3,0,0,0,0,1,3,1,3,2,3,0,3,3,3,3,0,3,1,3,0,1,0,3,1,0,3,0,3,2,1,2,3,2,3,2,1,1,1,2,1,2,3,3,3,0,0,0,0,0,0,0,0,0,0,0,0,0,0,0,0,0,0,0,0,0,0,0,0,0,0,0,0,0,0,0,0,0,0,0,0,0,0,0,0,0,0,0,0,0,0,0,0,0,0,0,0,0,0,0],"split_type":[0,0,0,0,0,0,0,0,0,0,0,0,0,0,0,0,0,0,0,0,0,0,0,0,0,0,0,0,0,0,0,0,0,0,0,0,0,0,0,0,0,0,0,0,0,0,0,0,0,0,0,0,0,0,0,0,0,0,0,0,0,0,0,0,0,0,0,0,0,0,0,0,0,0,0,0,0,0,0,0,0,0,0,0,0,0,0,0,0,0,0,0,0,0,0,0,0,0,0,0,0,0,0,0,0,0,0,0,0],"sum_hessian":[1.4445E3,7.58528E2,6.85972E2,1.5616681E2,6.023612E2,3.862971E2,2.9967493E2,6.0569805E1,9.5597E1,5.953612E2,7E0,3.1446753E2,7.1829544E1,2.0167087E2,9.800406E1,2.7879871E1,3.2689934E1,2.5647322E1,6.994968E1,4.8748703E2,1.0787419E2,2.7792288E2,3.6544643E1,4.2664772E1,2.9164774E1,1.1603896E2,8.56319E1,9.2159096E1,5.844968E0,1.5094968E1,1.2784903E1,7.5174513E0,2.5172483E1,8.534903E0,1.711242E1,3.111242E1,3.8837257E1,4.5702963E2,3.0457386E1,2.4957386E1,8.29168E1,2.2522322E2,5.2699677E1,5.844968E0,3.0699677E1,3.0992289E1,1.1672483E1,1.5612419E1,1.3552354E1,7.805438E1,3.7984577E1,4.0914772E1,4.471713E1,6.2786934E1,2.937216E1,2.3449676E0,3.5E0,6.594968E0,8.5E0,3.922484E0,8.862419E0,3.3449676E0,4.172484E0,2.2E1,3.172484E0,4.939935E0,3.5949676E0,6E0,1.1112419E1,2.6017452E1,5.094968E0,7.172484E0,3.1664774E1,4E0,4.5302963E2,1.0939936E1,1.9517452E1,6.5E0,1.8457386E1,7.99168E1,3E0,1.8073863E2,4.4484577E1,6.5E0,4.6199677E1,2.5949676E0,3.25E0,2.1837257E1,8.862419E0,2.8992289E1,2E0,1.9224838E0,9.75E0,1.2767451E1,2.8449676E0,1.137987E1,2.172484E0,3.5174513E0,7.4536934E1,7.689935E0,3.0294643E1,2.5319805E1,1.5594968E1,4.221713E1,2.5E0,4.8424515E1,1.4362419E1,2.837216E1,1E0],"tree_param":{"num_deleted":"0","num_feature":"4","num_nodes":"109","size_leaf_vector":"1"}},{"base_weights":[-2.7806073E-4,-2.7895778E-1,3.078437E-1,-6.845621E-1,-1.7286819E-1,1.7926851E-1,4.7244927E-1,-1.0246038E0,-4.607824E-1,-1.5203549E-1,-5.115302E-2,2.581564E-1,-1.6494793E-1,3.3692998E-1,7.45132E-1,-6.1525E-1,-1.3451886E0,1.1130539E-2,-6.315183E-1,-2.2265753E-1,1.6624579E-1,1.871787E-1,7.78697E-1,-4.3895355E-1,2.371642E-1,5.651941E-1,2.4661649E-2,8.159789E-1,-3.2817507E-1,-1.2589514E0,1.8071118E-1,-1.1022726E-1,-1.6959001E0,1.1326718E0,-5.798609E-1,-1.1731222E0,-1.7921574E-1,-1.7788479E-1,-8.676145E-1,-6.408187E-1,4.1388288E-1,2.8074944E-1,-2.1051802E-1,-3.2907692E-1,9.9329823E-1,-3.1945687E-2,-1.4323666E0,-4.5383424E-1,1.0097555E0,2.7195132E-1,1.1455171E0,-3.7506545E-1,3.9057973E-1,5.8692735E-1,1.2702904E0,4.1190874E-2,-4.559728E-2,-1.4658377E-2,-5.227724E-2,-1.8770028E-2,1.6945813E-2,1.814503E-2,-2.0687776E-2,-5.5788796E-2,-1.1628504E-2,4.3747853E-2,1.3962802E-2,-5.013481E-2,2.9501847E-3,-4.0956013E-2,-3.8872347E-3,-3.4518667E-2,2.077283E-3,-5.783873E-3,3.620419E-2,-3.8602345E-2,-1.1233643E-2,-5.0677985E-2,-6.119539E-3,1.5051218E-2,-4.4004373E-2,5.2011875E-3,2.1109724E-2,-5.0677985E-2,8.6330273E-4,3.4215458E-2,-4.4847984E-2,2.401774E-2,4.2143777E-2,2.8987736E-3,-3.9210558E-2,8.665145E-3,-5.301698E-2,7.938699E-3,-3.5515577E-2,3.4791104E-2,3.1951128E-3,4.0236086E-2,5.360168E-3,1.1358802E-2,3.9657857E-2,6.242725E-3,-3.8330313E-2,1.5791647E-2,-4.195267E-2,2.1122644E-2,-4.4294164E-2,4.620607E-2,2.2753736E-2],"categories":[],"categories_nodes":[],"categories_segments":[],"categories_sizes":[],"default_left":[0,0,0,0,0,0,0,0,0,0,0,0,0,0,0,0,0,0,0,0,0,0,0,0,0,0,0,0,0,0,0,0,0,0,0,0,0,0,0,0,0,0,0,0,0,0,0,0,0,0,0,0,0,0,0,0,0,0,0,0,0,0,0,0,0,0,0,0,0,0,0,0,0,0,0,0,0,0,0,0,0,0,0,0,0,0,0,0,0,0,0,0,0,0,0,0,0,0,0,0,0,0,0,0,0,0,0,0,0],"id":1,"left_children":[1,3,5,7,9,11,13,15,17,19,-1,21,23,25,27,29,31,33,35,37,39,41,43,45,47,49,51,53,55,57,59,61,63,65,67,69,71,73,75,77,79,81,83,85,87,89,91,93,95,97,99,101,103,105,107,-1,-1,-1,-1,-1,-1,-1,-1,-1,-1,-1,-1,-1,-1,-1,-1,-1,-1,-1,-1,-1,-1,-1,-1,-1,-1,-1,-1,-1,-1,-1,-1,-1,-1,-1,-1,-1,-1,-1,-1,-1,-1,-1,-1,-1,-1,-1,-1,-1,-1,-1,-1,-1,-1],"loss_changes":[1.24193245E2,3.2561237E1,1.4452698E1,1.1483818E1,1.8999498E1,1.0558488E1,1.0858139E1,7.248871E0,7.788435E0,1.3441317E1,0E0,1.1508982E1,8.126955E0,1.443054E1,7.7941895E0,1.5020578E1,1.43964615E1,1.8314795E1,1.7166822E1,1.3951117E1,2.2022541E1,1.0438188E1,9.249996E0,1.7605804E1,1.6558685E1,1.9603004E1,1.2816413E1,8.946339E0,1.5958289E1,5.1423798E0,4.623242E0,3.945402E0,4.881439E0,1.392149E0,1.3566746E1,6.2574883E0,9.69401E0,9.689561E0,6.018978E0,1.154174E1,1.4595475E1,1.0150591E1,1.9049046E1,1.3428414E1,1.3884602E0,5.370902E0,7.810339E0,9.02492E0,1.8469763E0,7.644892E0,4.7719E0,2.232496E1,1.1842667E1,1.6457863E1,3.0259132E0,0E0,0E0,0E0,0E0,0E0,0E0,0E0,0E0,0E0,0E0,0E0,0E0,0E0,0E0,0E0,0E0,0E0,0E0,0E0,0E0,0E0,0E0,0E0,0E0,0E0,0E0,0E0,0E0,0E0,0E0,0E0,0E0,0E0,0E0,0E0,0E0,0E0,0E0,0E0,0E0,0E0,0E0,0E0,0E0,0E0,0E0,0E0,0E0,0E0,0E0,0E0,0E0,0E0,0E0],"parents":[2147483647,0,0,1,1,2,2,3,3,4,4,5,5,6,6,7,7,8,8,9,9,11,11,12,12,13,13,14,14,15,15,16,16,17,17,18,18,19,19,20,20,21,21,22,22,23,23,24,24,25,25,26,26,27,27,28,28,29,29,30,30,31,31,32,32,33,33,34,34,35,35,36,36,37,37,38,38,39,39,40,40,41,41,42,42,43,43,44,44,45,45,46,46,47,47,48,48,49,49,50,50,51,51,52,52,53,53,54,54],"right_children":[2,4,6,8,10,12,14,16,18,20,-1,22,24,26,28,30,32,34,36,38,40,42,44,46,48,50,52,54,56,58,60,62,64,66,68,70,72,74,76,78,80,82,84,86,88,90,92,94,96,98,100,102,104,106,108,-1,-1,-1,-1,-1,-1,-1,-1,-1,-1,-1,-1,-1,-1,-1,-1,-1,-1,-1,-1,-1,-1,-1,-1,-1,-1,-1,-1,-1,-1,-1,-1,-1,-1,-1,-1,-1,-1,-1,-1,-1,-1,-1,-1,-1,-1,-1,-1,-1,-1,-1,-1,-1,-1],"split_conditions":[5.253623E-2,3.2295387E-2,3.816794E-2,2.3698506E0,1.3207264E1,5.0114E0,4.8510814E0,2.2E-2,2.857475E0,3.5955057E-2,-5.115302E-2,4.2533903E0,8.388608E0,2.7433503E0,7.738033E-2,2.1276595E-2,2.5210084E-2,2.0521354E-2,2.8130671E-2,3.3739004E-2,2.19179E0,3.311258E-2,2.2808269E-2,3.0425964E-2,3.1512212E-2,2.346845E0,4.835165E-2,7.248596E-2,4.0816326E-2,1.6763661E0,2.5210084E-2,1.7308176E0,2.8614176E-2,2.5405787E-2,2.5678763E0,2.610966E-2,3.4542143E0,3.370044E-2,2.6496744E0,4.5220003E-2,5.1587302E-2,3.0716723E-2,5.7971016E-2,2.027027E-2,3.343949E-2,7.703169E-2,5.376344E-2,2.5210084E-2,7.1875E-2,3.916084E-2,5.939394E-2,4.2435423E-2,6.716418E-2,6.8832174E-2,7.457627E-2,4.1190874E-2,-4.559728E-2,-1.4658377E-2,-5.227724E-2,-1.8770028E-2,1.6945813E-2,1.814503E-2,-2.0687776E-2,-5.5788796E-2,-1.1628504E-2,4.3747853E-2,1.3962802E-2,-5.013481E-2,2.9501847E-3,-4.0956013E-2,-3.8872347E-3,-3.4518667E-2,2.077283E-3,-5.783873E-3,3.620419E-2,-3.8602345E-2,-1.1233643E-2,-5.0677985E-2,-6.119539E-3,1.5051218E-2,-4.4004373E-2,5.2011875E-3,2.1109724E-2,-5.0677985E-2,8.6330273E-4,3.4215458E-2,-4.4847984E-2,2.401774E-2,4.2143777E-2,2.8987736E-3,-3.9210558E-2,8.665145E-3,-5.301698E-2,7.938699E-3,-3.5515577E-2,3.4791104E-2,3.1951128E-3,4.0236086E-2,5.360168E-3,1.1358802E-2,3.9657857E-2,6.242725E-3,-3.8330313E-2,1.5791647E-2,-4.195267E-2,2.1122644E-2,-4.4294164E-2,4.620607E-2,2.2753736E-2],"split_indices":[2,1,3,0,0,0,0,3,0,3,0,0,0,0,1,3,1,3,2,3,0,3,3,3,3,0,3,1,3,0,1,0,3,1,0,3,0,3,0,1,2,3,2,3,3,1,2,3,2,3,2,3,3,2,1,0,0,0,0,0,0,0,0,0,0,0,0,0,0,0,0,0,0,0,0,0,0,0,0,0,0,0,0,0,0,0,0,0,0,0,0,0,0,0,0,0,0,0,0,0,0,0,0,0,0,0,0,0,0],"split_type":[0,0,0,0,0,0,0,0,0,0,0,0,0,0,0,0,0,0,0,0,0,0,0,0,0,0,0,0,0,0,0,0,0,0,0,0,0,0,0,0,0,0,0,0,0,0,0,0,0,0,0,0,0,0,0,0,0,0,0,0,0,0,0,0,0,0,0,0,0,0,0,0,0,0,0,0,0,0,0,0,0,0,0,0,0,0,0,0,0,0,0,0,0,0,0,0,0,0,0,0,0,0,0,0,0,0,0,0,0],"sum_hessian":[1.4443395E3,7.584534E2,6.858861E2,1.5611978E2,6.023337E2,3.862619E2,2.9962418E2,6.05433E1,9.557648E1,5.953385E2,6.995178E0,3.144467E2,7.18152E1,2.0164514E2,9.797905E1,2.7872341E1,3.267096E1,2.5640663E1,6.9935814E1,4.874752E2,1.0786329E2,2.7791193E2,3.6534767E1,4.265666E1,2.9158546E1,1.160235E2,8.5621635E1,9.2137024E1,5.8420258E0,1.5088473E1,1.2783868E1,7.5166945E0,2.5154264E1,8.532236E0,1.7108427E1,3.1100843E1,3.883497E1,4.5702448E2,3.0450716E1,2.495281E1,8.291048E1,2.2521666E2,5.2695274E1,5.8424644E0,3.06923E1,3.0991425E1,1.1665233E1,1.5609837E1,1.354871E1,7.8051796E1,3.79717E1,4.0908455E1,4.4713184E1,6.2777977E1,2.9359047E1,2.3439307E0,3.498095E0,6.5945945E0,8.493878E0,3.9221213E0,8.861747E0,3.344679E0,4.172015E0,2.1981894E1,3.1723714E0,4.937452E0,3.594784E0,5.9960346E0,1.1112393E1,2.6005896E1,5.0949473E0,7.170232E0,3.1664738E1,4.5300705E2,4.017426E0,1.5590963E1,1.4859752E1,6.495608E0,1.8457203E1,7.9911995E1,2.9984818E0,1.8073734E2,4.447932E1,6.495608E0,4.619967E1,2.5941746E0,3.24829E0,2.2909246E1,7.7830553E0,2.8992226E1,1.9992002E0,1.9222673E0,9.742966E0,8.188512E0,7.421325E0,1.1376231E1,2.172478E0,5.1892595E0,7.286254E1,7.6896734E0,3.0282024E1,2.5319546E1,1.5588908E1,4.2214333E1,2.4988523E0,6.0028313E1,2.7496636E0,1.7906807E1,1.1452239E1],"tree_param":{"num_deleted":"0","num_feature":"4","num_nodes":"109","size_leaf_vector":"1"}},{"base_weights":[-4.933022E-4,-2.7114493E-1,2.987702E-1,-6.659246E-1,-1.6796339E-1,1.7383476E-1,4.5874715E-1,-9.9738735E-1,-4.4793358E-1,-1.4766666E-1,-4.9898602E-2,2.5056016E-1,-1.6105677E-1,1.0385126E0,3.9750206E-1,-8.1413716E-1,-5.235021E-2,1.1195634E-2,-6.1401844E-1,-2.1836933E-1,1.6072717E-1,1.8149918E-1,7.5736916E-1,-4.2786992E-1,2.3051995E-1,1.2055622E0,1.01617634E-1,-7.588936E-1,4.35645E-1,-3.5599577E-1,-1.1852405E0,1.1056578E0,-5.654457E-1,-1.1405303E0,-1.7468508E-1,-2.5893098E-1,6.556102E-1,3.3923823E-1,-4.527324E-1,2.7246663E-1,-2.05184E-1,-3.2110947E-1,9.662018E-1,-3.2125894E-2,-1.3951926E0,-4.4203234E-1,9.827964E-1,4.3011792E-2,9.2139286E-1,-3.633137E-2,2.7872195E-2,-4.7638368E-2,1.1986066E-1,-4.0131074E-1,4.7577924E-1,-3.1205148E-2,1.0357091E-2,6.3364776E-3,-4.7992922E-2,4.270894E-2,1.3636691E-2,-4.8927147E-2,2.8690042E-3,-3.9822638E-2,-3.7897888E-3,-3.363705E-2,2.016883E-3,-7.110438E-3,-3.8790658E-2,2.5833413E-2,-1.2598899E-2,-4.6915274E-2,1.3305985E-2,4.229064E-2,-2.102652E-2,5.046115E-3,2.0497281E-2,-4.944547E-2,8.3796075E-4,3.3496406E-2,-4.3871265E-2,2.3338782E-2,4.1062854E-2,2.8147362E-3,-3.8456786E-2,8.494262E-3,-5.167423E-2,-2.3818746E-2,2.7982151E-2,3.3860862E-2,3.1294923E-3,3.6741916E-2,-6.4324685E-3,2.8539186E-2,-3.6204934E-2,-4.7149602E-2,6.4748907E-3,3.305681E-2,1.233989E-2],"categories":[],"categories_nodes":[],"categories_segments":[],"categories_sizes":[],"default_left":[0,0,0,0,0,0,0,0,0,0,0,0,0,0,0,0,0,0,0,0,0,0,0,0,0,0,0,0,0,0,0,0,0,0,0,0,0,0,0,0,0,0,0,0,0,0,0,0,0,0,0,0,0,0,0,0,0,0,0,0,0,0,0,0,0,0,0,0,0,0,0,0,0,0,0,0,0,0,0,0,0,0,0,0,0,0,0,0,0,0,0,0,0,0,0,0,0,0,0],"id":2,"left_children":[1,3,5,7,9,11,13,15,17,19,-1,21,23,25,27,29,-1,31,33,35,37,39,41,43,45,47,49,51,53,55,57,59,61,63,65,67,69,71,73,75,77,79,81,83,85,87,89,-1,91,-1,-1,-1,93,95,97,-1,-1,-1,-1,-1,-1,-1,-1,-1,-1,-1,-1,-1,-1,-1,-1,-1,-1,-1,-1,-1,-1,-1,-1,-1,-1,-1,-1,-1,-1,-1,-1,-1,-1,-1,-1,-1,-1,-1,-1,-1,-1,-1,-1],"loss_changes":[1.1711226E2,3.0815155E1,1.3644291E1,1.08962555E1,1.80634E1,9.988415E0,1.0256989E1,7.000374E0,7.3667336E0,1.3036504E1,0E0,1.0901346E1,7.7021217E0,4.273838E0,1.2389889E1,8.289955E0,0E0,1.7426264E1,1.6199984E1,1.7380558E1,1.2394944E1,9.865686E0,8.757772E0,1.6658669E1,1.5684863E1,2.186966E-1,6.928214E0,6.816126E0,9.102737E0,1.2046544E1,1.6476852E1,1.3247681E0,1.2902554E1,5.910553E0,9.195441E0,1.0224794E1,5.1836596E0,1.7993069E1,1.2830725E1,9.5728245E0,1.8104092E1,1.28476305E1,1.3352585E0,5.155605E0,7.4333134E0,8.773997E0,1.7456083E0,0E0,4.870474E0,0E0,0E0,0E0,7.043796E0,9.499319E0,9.781208E0,0E0,0E0,0E0,0E0,0E0,0E0,0E0,0E0,0E0,0E0,0E0,0E0,0E0,0E0,0E0,0E0,0E0,0E0,0E0,0E0,0E0,0E0,0E0,0E0,0E0,0E0,0E0,0E0,0E0,0E0,0E0,0E0,0E0,0E0,0E0,0E0,0E0,0E0,0E0,0E0,0E0,0E0,0E0,0E0],"parents":[2147483647,0,0,1,1,2,2,3,3,4,4,5,5,6,6,7,7,8,8,9,9,11,11,12,12,13,13,14,14,15,15,17,17,18,18,19,19,20,20,21,21,22,22,23,23,24,24,25,25,26,26,27,27,28,28,29,29,30,30,31,31,32,32,33,33,34,34,35,35,36,36,37,37,38,38,39,39,40,40,41,41,42,42,43,43,44,44,45,45,46,46,48,48,52,52,53,53,54,54],"right_children":[2,4,6,8,10,12,14,16,18,20,-1,22,24,26,28,30,-1,32,34,36,38,40,42,44,46,48,50,52,54,56,58,60,62,64,66,68,70,72,74,76,78,80,82,84,86,88,90,-1,92,-1,-1,-1,94,96,98,-1,-1,-1,-1,-1,-1,-1,-1,-1,-1,-1,-1,-1,-1,-1,-1,-1,-1,-1,-1,-1,-1,-1,-1,-1,-1,-1,-1,-1,-1,-1,-1,-1,-1,-1,-1,-1,-1,-1,-1,-1,-1,-1,-1],"split_conditions":[5.253623E-2,3.2295387E-2,3.816794E-2,2.3698506E0,1.3207264E1,5.0114E0,3.933693E-2,2.1373107E0,2.857475E0,4.6039233E0,-4.9898602E-2,4.2533903E0,8.388608E0,7.204611E-2,1.6257384E0,2.2E-2,-5.235021E-2,2.0521354E-2,2.8130671E-2,4.5454547E-2,4.7549162E-2,3.311258E-2,2.2808269E-2,3.0425964E-2,3.1512212E-2,2.9913564E0,3.963546E0,5.1813472E-2,4.0302265E-2,2.1276595E-2,2.5210084E-2,2.5405787E-2,2.5678763E0,2.610966E-2,3.4542143E0,4.2435423E-2,3.168185E0,2.1021022E-2,2.0434227E-2,3.0716723E-2,5.7971016E-2,2.027027E-2,3.343949E-2,7.703169E-2,5.376344E-2,7.797348E-2,7.1875E-2,4.3011792E-2,6.1797753E-2,-3.633137E-2,2.7872195E-2,-4.7638368E-2,6.485356E-2,6.2111802E-2,4.155844E-2,-3.1205148E-2,1.0357091E-2,6.3364776E-3,-4.7992922E-2,4.270894E-2,1.3636691E-2,-4.8927147E-2,2.8690042E-3,-3.9822638E-2,-3.7897888E-3,-3.363705E-2,2.016883E-3,-7.110438E-3,-3.8790658E-2,2.5833413E-2,-1.2598899E-2,-4.6915274E-2,1.3305985E-2,4.229064E-2,-2.102652E-2,5.046115E-3,2.0497281E-2,-4.944547E-2,8.3796075E-4,3.3496406E-2,-4.3871265E-2,2.3338782E-2,4.1062854E-2,2.8147362E-3,-3.8456786E-2,8.494262E-3,-5.167423E-2,-2.3818746E-2,2.7982151E-2,3.3860862E-2,3.1294923E-3,3.6741916E-2,-6.4324685E-3,2.8539186E-2,-3.6204934E-2,-4.7149602E-2,6.4748907E-3,3.305681E-2,1.233989E-2],"split_indices":[2,1,3,0,0,0,3,0,0,0,0,0,0,2,0,3,0,3,2,3,1,3,3,3,3,0,0,3,3,3,1,1,0,3,0,3,0,3,3,3,2,3,3,1,2,1,2,0,2,0,0,0,1,1,3,0,0,0,0,0,0,0,0,0,0,0,0,0,0,0,0,0,0,0,0,0,0,0,0,0,0,0,0,0,0,0,0,0,0,0,0,0,0,0,0,0,0,0,0],"split_type":[0,0,0,0,0,0,0,0,0,0,0,0,0,0,0,0,0,0,0,0,0,0,0,0,0,0,0,0,0,0,0,0,0,0,0,0,0,0,0,0,0,0,0,0,0,0,0,0,0,0,0,0,0,0,0,0,0,0,0,0,0,0,0,0,0,0,0,0,0,0,0,0,0,0,0,0,0,0,0,0,0,0,0,0,0,0,0,0,0,0,0,0,0,0,0,0,0,0,0],"sum_hessian":[1.4438989E3,7.5824335E2,6.856556E2,1.55984E2,6.0225934E2,3.86164E2,2.9949158E2,6.046681E1,9.551719E1,5.9527814E2,6.981232E0,3.143879E2,7.1776115E1,2.7090227E1,2.7240134E2,5.0241104E1,1.0225702E1,2.5621378E1,6.989581E1,4.844944E2,1.1078373E2,2.778803E2,3.6507603E1,4.2633648E1,2.9142464E1,2.2747545E1,4.342681E0,8.094707E0,2.6430664E2,2.3360704E1,2.68804E1,8.524505E0,1.7096872E1,3.1067465E1,3.8828346E1,4.6367865E2,2.0815731E1,8.615921E1,2.4624523E1,2.2519775E2,5.2682537E1,5.835186E0,3.0672419E1,3.0988905E1,1.1644744E1,1.5604284E1,1.353818E1,1.0373316E1,1.237423E1,1.4998164E0,2.8428648E0,3.7498794E0,4.3448277E0,1.1682463E1,2.5262418E2,1.1579505E1,1.17812E1,6.265043E0,2.0615358E1,4.9302545E0,3.59425E0,5.9845533E0,1.111232E1,2.5972576E1,5.0948887E0,7.1637144E0,3.166463E1,4.5525916E2,8.4195E0,1.7643988E1,3.1717432E0,3.7493703E0,8.2409836E1,2.3448992E0,2.2279625E1,1.807336E2,4.4464157E1,6.4828978E0,4.619964E1,2.591865E0,3.243321E0,2.2897688E1,7.7747307E0,2.8992039E1,1.9968661E0,1.9222274E0,9.722516E0,1.2760276E1,2.8440084E0,1.1365719E1,2.172461E0,9.704249E0,2.6699808E0,2.8448758E0,1.4999517E0,3.4994493E0,8.183013E0,2.2074814E1,2.3054936E2],"tree_param":{"num_deleted":"0","num_feature":"4","num_nodes":"99","size_leaf_vector":"1"}},{"base_weights":[-6.6627766E-4,-2.6347092E-1,2.8992563E-1,-6.479501E-1,-1.6310053E-1,1.6867019E-1,4.451752E-1,-9.7106856E-1,-4.3561035E-1,-1.4332269E-1,-4.8727505E-2,2.4321489E-1,-1.5689035E-1,3.1382424E-1,7.0969653E-1,-7.9214895E-1,-5.106128E-2,1.125224E-2,-5.9721357E-1,-2.1118104E-1,1.625632E-1,1.7600258E-1,7.369627E-1,-4.1721538E-1,2.2517866E-1,5.362597E-1,9.784106E-3,7.78919E-1,-3.3694845E-1,-3.463964E-1,-1.1537697E0,1.0798358E0,-5.5161524E-1,-1.1095487E0,-1.7028804E-1,-1.6774909E-1,-8.373839E-1,-6.2089664E-1,4.028344E-1,2.6444188E-1,-2.0001875E-1,-1.6617641E-1,9.7783345E-1,-3.228277E-2,-1.3603728E0,-5.2985555E-1,8.64275E-1,2.5289154E-1,1.0979817E0,-3.7943333E-1,3.6638534E-1,5.550284E-1,1.224019E0,3.9763518E-2,-4.4891156E-2,-3.0377941E-2,1.0071592E-2,6.1725983E-3,-4.6754427E-2,4.1726172E-2,1.3319164E-2,-4.7797192E-2,2.7900622E-3,-3.874975E-2,-3.694808E-3,1.6836466E-2,-1.3837629E-2,-4.6405725E-2,-4.566175E-3,-6.8899817E-3,-3.451521E-2,-4.9220037E-2,-5.9074047E-3,1.4643999E-2,-4.2796213E-2,4.895726E-3,1.9906634E-2,-4.8293613E-2,8.1335363E-4,3.280579E-2,-2.6207713E-2,3.4490038E-2,1.5433297E-2,2.7331298E-3,-3.7736244E-2,8.479002E-3,-5.0464697E-2,7.885527E-3,-4.8348557E-2,5.33485E-3,3.2177903E-2,3.8888235E-2,4.863768E-3,1.040203E-2,3.8152892E-2,5.5826004E-3,-3.7621904E-2,1.4973611E-2,-4.1343633E-2,2.4860788E-2,-1.0824844E-2,3.9343476E-2,1.8430104E-3],"categories":[],"categories_nodes":[],"categories_segments":[],"categories_sizes":[],"default_left":[0,0,0,0,0,0,0,0,0,0,0,0,0,0,0,0,0,0,0,0,0,0,0,0,0,0,0,0,0,0,0,0,0,0,0,0,0,0,0,0,0,0,0,0,0,0,0,0,0,0,0,0,0,0,0,0,0,0,0,0,0,0,0,0,0,0,0,0,0,0,0,0,0,0,0,0,0,0,0,0,0,0,0,0,0,0,0,0,0,0,0,0,0,0,0,0,0,0,0,0,0,0,0],"id":3,"left_children":[1,3,5,7,9,11,13,15,17,19,-1,21,23,25,27,29,-1,31,33,35,37,39,41,43,45,47,49,51,53,55,57,59,61,63,65,67,69,71,73,75,77,79,81,83,85,87,89,91,93,95,97,99,101,-1,-1,-1,-1,-1,-1,-1,-1,-1,-1,-1,-1,-1,-1,-1,-1,-1,-1,-1,-1,-1,-1,-1,-1,-1,-1,-1,-1,-1,-1,-1,-1,-1,-1,-1,-1,-1,-1,-1,-1,-1,-1,-1,-1,-1,-1,-1,-1,-1,-1],"loss_changes":[1.1038197E2,2.9183441E1,1.2846352E1,1.0333939E1,1.7198547E1,9.430315E0,1.0214626E1,6.676655E0,6.9698067E0,1.2410332E1,0E0,1.0333597E1,7.326026E0,1.3690897E1,7.426407E0,7.8477097E0,0E0,1.6589037E1,1.530405E1,1.3143072E1,2.0734634E1,9.325396E0,8.312319E0,1.5783884E1,1.4989802E1,1.8335457E1,1.215623E1,8.593174E0,1.5151524E1,1.1403191E1,1.56270485E1,1.2637644E0,1.2286874E1,5.5916595E0,8.733785E0,9.581906E0,5.716158E0,1.0889743E1,1.3786227E1,9.031271E0,1.7226341E1,8.74618E0,1.7751331E0,4.9514165E0,7.143137E0,1.2793701E1,2.1959562E0,7.2738013E0,4.63892E0,2.0952606E1,1.1268399E1,1.6273903E1,3.0003395E0,0E0,0E0,0E0,0E0,0E0,0E0,0E0,0E0,0E0,0E0,0E0,0E0,0E0,0E0,0E0,0E0,0E0,0E0,0E0,0E0,0E0,0E0,0E0,0E0,0E0,0E0,0E0,0E0,0E0,0E0,0E0,0E0,0E0,0E0,0E0,0E0,0E0,0E0,0E0,0E0,0E0,0E0,0E0,0E0,0E0,0E0,0E0,0E0,0E0,0E0],"parents":[2147483647,0,0,1,1,2,2,3,3,4,4,5,5,6,6,7,7,8,8,9,9,11,11,12,12,13,13,14,14,15,15,17,17,18,18,19,19,20,20,21,21,22,22,23,23,24,24,25,25,26,26,27,27,28,28,29,29,30,30,31,31,32,32,33,33,34,34,35,35,36,36,37,37,38,38,39,39,40,40,41,41,42,42,43,43,44,44,45,45,46,46,47,47,48,48,49,49,50,50,51,51,52,52],"right_children":[2,4,6,8,10,12,14,16,18,20,-1,22,24,26,28,30,-1,32,34,36,38,40,42,44,46,48,50,52,54,56,58,60,62,64,66,68,70,72,74,76,78,80,82,84,86,88,90,92,94,96,98,100,102,-1,-1,-1,-1,-1,-1,-1,-1,-1,-1,-1,-1,-1,-1,-1,-1,-1,-1,-1,-1,-1,-1,-1,-1,-1,-1,-1,-1,-1,-1,-1,-1,-1,-1,-1,-1,-1,-1,-1,-1,-1,-1,-1,-1,-1,-1,-1,-1,-1,-1],"split_conditions":[5.253623E-2,3.2295387E-2,3.816794E-2,2.3698506E0,1.3207264E1,5.0114E0,4.8510814E0,2.1373107E0,2.857475E0,3.5955057E-2,-4.8727505E-2,4.2533903E0,8.388608E0,2.7433503E0,7.738033E-2,2.2E-2,-5.106128E-2,2.0521354E-2,2.8130671E-2,3.3739004E-2,2.19179E0,3.311258E-2,2.4096385E-2,3.0425964E-2,3.0042918E-2,2.346845E0,4.835165E-2,7.248596E-2,4.0816326E-2,2.1276595E-2,2.5210084E-2,2.5405787E-2,2.5678763E0,2.610966E-2,2.9216468E-2,2.0100502E-2,4.109589E-2,4.5220003E-2,5.1587302E-2,3.0716723E-2,5.7971016E-2,2.027027E-2,6.807131E-2,7.703169E-2,5.479452E-2,2.5210084E-2,6.2801935E-2,5.464481E-2,5.939394E-2,4.2435423E-2,6.716418E-2,5.1813472E-2,1.3207264E1,3.9763518E-2,-4.4891156E-2,-3.0377941E-2,1.0071592E-2,6.1725983E-3,-4.6754427E-2,4.1726172E-2,1.3319164E-2,-4.7797192E-2,2.7900622E-3,-3.874975E-2,-3.694808E-3,1.6836466E-2,-1.3837629E-2,-4.6405725E-2,-4.566175E-3,-6.8899817E-3,-3.451521E-2,-4.9220037E-2,-5.9074047E-3,1.4643999E-2,-4.2796213E-2,4.895726E-3,1.9906634E-2,-4.8293613E-2,8.1335363E-4,3.280579E-2,-2.6207713E-2,3.4490038E-2,1.5433297E-2,2.7331298E-3,-3.7736244E-2,8.479002E-3,-5.0464697E-2,7.885527E-3,-4.8348557E-2,5.33485E-3,3.2177903E-2,3.8888235E-2,4.863768E-3,1.040203E-2,3.8152892E-2,5.5826004E-3,-3.7621904E-2,1.4973611E-2,-4.1343633E-2,2.4860788E-2,-1.0824844E-2,3.9343476E-2,1.8430104E-3],"split_indices":[2,1,3,0,0,0,0,0,0,3,0,0,0,0,1,3,0,3,2,3,0,3,3,3,3,0,3,1,3,3,1,1,0,3,1,3,2,1,2,3,2,3,2,1,1,3,2,1,2,3,3,3,0,0,0,0,0,0,0,0,0,0,0,0,0,0,0,0,0,0,0,0,0,0,0,0,0,0,0,0,0,0,0,0,0,0,0,0,0,0,0,0,0,0,0,0,0,0,0,0,0,0,0],"split_type":[0,0,0,0,0,0,0,0,0,0,0,0,0,0,0,0,0,0,0,0,0,0,0,0,0,0,0,0,0,0,0,0,0,0,0,0,0,0,0,0,0,0,0,0,0,0,0,0,0,0,0,0,0,0,0,0,0,0,0,0,0,0,0,0,0,0,0,0,0,0,0,0,0,0,0,0,0,0,0,0,0,0,0,0,0,0,0,0,0,0,0,0,0,0,0,0,0,0,0,0,0,0,0],"sum_hessian":[1.4433784E3,7.5797577E2,6.854026E2,1.5578181E2,6.02194E2,3.8600525E2,2.9939734E2,6.0359425E1,9.5422386E1,5.9523505E2,6.9589005E0,3.1429337E2,7.171188E1,2.0151782E2,9.787951E1,5.0164433E1,1.0194991E1,2.5590452E1,6.983193E1,4.8741544E2,1.0781964E2,2.7782974E2,3.646361E1,4.2596504E1,2.9115376E1,1.1593564E2,8.558219E1,9.2047516E1,5.8319955E0,2.334548E1,2.6818953E1,8.5120945E0,1.7078358E1,3.1014194E1,3.8817738E1,4.5698773E2,3.0427711E1,2.4933628E1,8.288602E1,2.251676E2,5.266214E1,7.7426887E0,2.8720924E1,3.0984835E1,1.16116705E1,1.3425407E1,1.5689968E1,7.802506E1,3.7910576E1,4.0889137E1,4.469305E1,6.2737026E1,2.931049E1,2.337399E0,3.4945965E0,1.1565409E1,1.178007E1,6.264979E0,2.0553974E1,4.918704E0,3.5933905E0,5.966156E0,1.1112201E1,2.59194E1,5.0947943E0,1.0782129E1,2.8035608E1,3.9950907E0,4.529926E2,1.0936097E1,1.9491615E1,6.4794626E0,1.8454165E1,7.989394E1,2.9920745E0,1.8072763E2,4.4439976E1,6.462539E0,4.61996E1,2.5881402E0,5.154548E0,1.9871262E1,8.849663E0,2.8991741E1,1.9930931E0,1.9216294E0,9.690041E0,8.184728E0,5.2406797E0,4.084535E0,1.1605433E1,5.1814256E0,7.2843636E1,7.684808E0,3.0225769E1,2.5310843E1,1.5578294E1,4.219633E1,2.4967203E0,4.8376846E1,1.4360181E1,2.7141329E1,2.1691625E0],"tree_param":{"num_deleted":"0","num_feature":"4","num_nodes":"103","size_leaf_vector":"1"}},{"base_weights":[-8.7724766E-4,-2.5619394E-1,2.814682E-1,-6.3050735E-1,-1.5861946E-1,1.6357303E-1,4.324623E-1,-9.460685E-1,-4.2338255E-1,-1.3934535E-1,-4.7631636E-2,2.3611708E-1,-1.5346678E-1,9.963224E-1,3.729794E-1,-7.711702E-1,-4.9861457E-2,1.1300622E-2,-5.805006E-1,-2.0297498E-1,1.7876303E-1,1.7068155E-1,7.17387E-1,-4.0695524E-1,2.185355E-1,1.159408E0,8.5283205E-2,-7.467192E-1,4.0998805E-1,-3.3713758E-1,-1.1240085E0,1.0551158E0,-5.3832924E-1,-1.080037E0,-1.6512632E-1,-2.3471336E-1,7.959734E-1,4.1159773E-1,-6.395358E-1,2.5666553E-1,-1.9501442E-1,-3.1408387E-1,9.170515E-1,-3.241702E-2,-1.327627E0,-5.1727736E-1,8.413957E-1,1.4224987E0,9.038872E-1,-3.606416E-2,2.7048608E-2,-4.663323E-2,1.1090983E-1,-4.1053993E-1,4.494121E-1,-2.9584734E-2,9.794413E-3,6.0130656E-3,-4.5593224E-2,4.0794708E-2,1.3009919E-2,-4.67376E-2,2.7133087E-3,-3.7731774E-2,-3.6022246E-3,-3.2558177E-2,2.085095E-3,-3.5432982E-3,-1.1191988E-2,-3.3458725E-2,3.1236548E-2,-4.4857845E-2,1.5615594E-2,1.467054E-2,-2.6390625E-2,4.7498723E-3,1.9336566E-2,-4.721469E-2,7.8947213E-4,3.2141745E-2,-4.2409893E-2,2.2020834E-2,3.9341837E-2,2.653908E-3,-3.7046682E-2,8.312513E-3,-4.9298745E-2,7.6747146E-3,-4.7235783E-2,5.2070995E-3,3.1326555E-2,1.3863693E-2,4.681986E-2,1.7689712E-2,4.4641607E-2,2.8058678E-2,-3.603358E-2,-4.627958E-2,5.6857537E-3,3.1666696E-2,1.1613167E-2],"categories":[],"categories_nodes":[],"categories_segments":[],"categories_sizes":[],"default_left":[0,0,0,0,0,0,0,0,0,0,0,0,0,0,0,0,0,0,0,0,0,0,0,0,0,0,0,0,0,0,0,0,0,0,0,0,0,0,0,0,0,0,0,0,0,0,0,0,0,0,0,0,0,0,0,0,0,0,0,0,0,0,0,0,0,0,0,0,0,0,0,0,0,0,0,0,0,0,0,0,0,0,0,0,0,0,0,0,0,0,0,0,0,0,0,0,0,0,0,0,0],"id":4,"left_children":[1,3,5,7,9,11,13,15,17,19,-1,21,23,25,27,29,-1,31,33,35,37,39,41,43,45,47,49,51,53,55,57,59,61,63,65,67,69,71,73,75,77,79,81,83,85,87,89,91,93,-1,-1,-1,95,97,99,-1,-1,-1,-1,-1,-1,-1,-1,-1,-1,-1,-1,-1,-1,-1,-1,-1,-1,-1,-1,-1,-1,-1,-1,-1,-1,-1,-1,-1,-1,-1,-1,-1,-1,-1,-1,-1,-1,-1,-1,-1,-1,-1,-1,-1,-1],"loss_changes":[1.0413249E2,2.7605633E1,1.2140312E1,9.829502E0,1.6389702E1,8.932523E0,9.695469E0,6.38361E0,6.583805E0,1.2102531E1,0E0,9.803028E0,6.9380865E0,4.067789E0,1.1623314E1,7.44075E0,0E0,1.5799377E1,1.4503006E1,1.5951479E1,1.9296312E1,8.81544E0,7.9927654E0,1.4973061E1,1.4223927E1,3.0789185E-1,6.6932316E0,6.470989E0,8.757362E0,1.0798641E1,1.48433E1,1.2083502E0,1.1714807E1,5.297615E0,8.670694E0,7.742899E0,8.444879E0,1.7057123E1,6.533494E0,8.52321E0,1.6409224E1,1.1892527E1,1.3180218E0,4.7576156E0,6.8213882E0,1.2182356E1,2.0773E0,5.973511E-1,1.833621E0,0E0,0E0,0E0,6.9028616E0,8.901041E0,9.159328E0,0E0,0E0,0E0,0E0,0E0,0E0,0E0,0E0,0E0,0E0,0E0,0E0,0E0,0E0,0E0,0E0,0E0,0E0,0E0,0E0,0E0,0E0,0E0,0E0,0E0,0E0,0E0,0E0,0E0,0E0,0E0,0E0,0E0,0E0,0E0,0E0,0E0,0E0,0E0,0E0,0E0,0E0,0E0,0E0,0E0,0E0],"parents":[2147483647,0,0,1,1,2,2,3,3,4,4,5,5,6,6,7,7,8,8,9,9,11,11,12,12,13,13,14,14,15,15,17,17,18,18,19,19,20,20,21,21,22,22,23,23,24,24,25,25,26,26,27,27,28,28,29,29,30,30,31,31,32,32,33,33,34,34,35,35,36,36,37,37,38,38,39,39,40,40,41,41,42,42,43,43,44,44,45,45,46,46,47,47,48,48,52,52,53,53,54,54],"right_children":[2,4,6,8,10,12,14,16,18,20,-1,22,24,26,28,30,-1,32,34,36,38,40,42,44,46,48,50,52,54,56,58,60,62,64,66,68,70,72,74,76,78,80,82,84,86,88,90,92,94,-1,-1,-1,96,98,100,-1,-1,-1,-1,-1,-1,-1,-1,-1,-1,-1,-1,-1,-1,-1,-1,-1,-1,-1,-1,-1,-1,-1,-1,-1,-1,-1,-1,-1,-1,-1,-1,-1,-1,-1,-1,-1,-1,-1,-1,-1,-1,-1,-1,-1,-1],"split_conditions":[5.253623E-2,3.2295387E-2,3.816794E-2,2.3698506E0,1.3207264E1,5.0114E0,3.933693E-2,2.1373107E0,2.857475E0,4.9152856E0,-4.7631636E-2,4.2533903E0,8.388608E0,7.204611E-2,1.6257384E0,2.2E-2,-4.9861457E-2,2.0521354E-2,2.8130671E-2,4.7418334E-2,4.7549162E-2,3.311258E-2,2.2808269E-2,3.0425964E-2,3.0042918E-2,5.6726094E-2,7.852194E-2,5.1813472E-2,4.0302265E-2,2.1276595E-2,2.5210084E-2,2.5405787E-2,2.5678763E0,2.610966E-2,3.4542143E0,2.8035045E-2,1.9804345E0,2.1021022E-2,2.2146508E-2,3.0716723E-2,5.7971016E-2,2.027027E-2,3.343949E-2,7.703169E-2,5.376344E-2,2.5210084E-2,6.2801935E-2,3.8674034E-2,7.119741E-2,-3.606416E-2,2.7048608E-2,-4.663323E-2,5.7142857E-2,6.2111802E-2,4.155844E-2,-2.9584734E-2,9.794413E-3,6.0130656E-3,-4.5593224E-2,4.0794708E-2,1.3009919E-2,-4.67376E-2,2.7133087E-3,-3.7731774E-2,-3.6022246E-3,-3.2558177E-2,2.085095E-3,-3.5432982E-3,-1.1191988E-2,-3.3458725E-2,3.1236548E-2,-4.4857845E-2,1.5615594E-2,1.467054E-2,-2.6390625E-2,4.7498723E-3,1.9336566E-2,-4.721469E-2,7.8947213E-4,3.2141745E-2,-4.2409893E-2,2.2020834E-2,3.9341837E-2,2.653908E-3,-3.7046682E-2,8.312513E-3,-4.9298745E-2,7.6747146E-3,-4.7235783E-2,5.2070995E-3,3.1326555E-2,1.3863693E-2,4.681986E-2,1.7689712E-2,4.4641607E-2,2.8058678E-2,-3.603358E-2,-4.627958E-2,5.6857537E-3,3.1666696E-2,1.1613167E-2],"split_indices":[2,1,3,0,0,0,3,0,0,0,0,0,0,2,0,3,0,3,2,3,1,3,3,3,3,2,1,3,3,3,1,1,0,3,0,3,0,3,3,3,2,3,3,1,2,3,2,3,1,0,0,0,3,1,3,0,0,0,0,0,0,0,0,0,0,0,0,0,0,0,0,0,0,0,0,0,0,0,0,0,0,0,0,0,0,0,0,0,0,0,0,0,0,0,0,0,0,0,0,0,0],"split_type":[0,0,0,0,0,0,0,0,0,0,0,0,0,0,0,0,0,0,0,0,0,0,0,0,0,0,0,0,0,0,0,0,0,0,0,0,0,0,0,0,0,0,0,0,0,0,0,0,0,0,0,0,0,0,0,0,0,0,0,0,0,0,0,0,0,0,0,0,0,0,0,0,0,0,0,0,0,0,0,0,0,0,0,0,0,0,0,0,0,0,0,0,0,0,0,0,0,0,0,0,0],"sum_hessian":[1.4425287E3,7.5757166E2,6.849571E2,1.5551726E2,6.020544E2,3.8580582E2,2.991513E2,6.0213093E1,9.530417E1,5.951255E2,6.9288816E0,3.1417297E2,7.1632835E1,2.7043768E1,2.7210754E2,5.006129E1,1.0151799E1,2.554882E1,6.975535E1,4.9622916E2,9.8896324E1,2.7776193E2,3.6411053E1,4.2546795E1,2.9086044E1,2.2706453E1,4.337315E0,8.092468E0,2.6401508E2,2.3324688E1,2.6736605E1,8.495373E0,1.705345E1,3.0942822E1,3.8812527E1,4.8169003E2,1.4539118E1,7.737689E1,2.151943E1,2.2512721E2,5.2634705E1,5.8121753E0,3.0598879E1,3.0979317E1,1.1567478E1,1.3411704E1,1.5674339E1,8.937311E0,1.3769141E1,1.4996536E0,2.8376617E0,3.7490742E0,4.343394E0,1.1672084E1,2.5234297E2,1.1546321E1,1.1778366E1,6.264796E0,2.047181E1,4.9031434E0,3.592229E0,5.941407E0,1.1112041E1,2.5848154E1,5.0946674E0,7.1493716E0,3.1663157E1,2.6239664E2,2.192934E2,1.2499824E0,1.3289135E1,3.4932919E0,7.38836E1,3.5939531E0,1.7925476E1,1.8071964E2,4.4407574E1,6.435163E0,4.619954E1,2.583096E0,3.2290792E0,2.2853458E1,7.745421E0,2.8991343E1,1.9879732E0,1.9215113E0,9.645967E0,8.184737E0,5.2269673E0,4.083746E0,1.1590593E1,1.6704872E0,7.266824E0,1.0259716E1,3.5094259E0,2.843744E0,1.4996498E0,3.499307E0,8.172777E0,2.2035069E1,2.303079E2],"tree_param":{"num_deleted":"0","num_feature":"4","num_nodes":"101","size_leaf_vector":"1"}},{"base_weights":[-1.0394154E-3,-2.4903391E-1,2.7321097E-1,-6.140435E-1,-1.5406974E-1,1.5863946E-1,4.1993237E-1,-9.22273E-1,-4.1200778E-1,-1.3528256E-1,-4.660391E-2,2.292382E-1,-1.5017432E-1,2.9251644E-1,6.768247E-1,-7.511191E-1,-4.8741825E-2,-3.4936842E-1,-4.6375163E-2,-2.0082456E-1,1.6027576E-1,1.6552919E-1,6.985804E-1,-3.970714E-1,2.1215965E-1,3.2728657E-1,-4.5441482E-2,7.445181E-1,-3.4513527E-1,-9.346208E-1,1.1678545E-2,-6.704022E-1,-1.7314358E-2,-1.5902081E-1,-8.044228E-1,-5.956553E-1,3.919048E-1,2.4912852E-1,-1.9016415E-1,-3.0703324E-1,8.929956E-1,-3.2530356E-2,-1.2968085E0,-4.130342E-1,9.12563E-1,2.5281534E-1,1.1180015E0,5.265677E-1,1.1789588E0,3.8452156E-2,-4.4201173E-2,-1.780298E-2,-5.0972454E-2,4.2392302E-2,-1.619611E-2,5.8345376E-3,-3.2002386E-2,-1.3873332E-2,7.151499E-3,-5.2058436E-3,3.555947E-2,-3.6323123E-2,-9.878151E-3,-4.783068E-2,-5.4721674E-3,1.4240527E-2,-4.164175E-2,6.5044635E-3,4.2383455E-2,-4.6201903E-2,7.6628657E-4,3.150256E-2,-4.1562136E-2,3.1004062E-2,1.4328202E-2,2.5769935E-3,-3.6386054E-2,8.298195E-3,-4.8246335E-2,-2.2523232E-2,2.7041696E-2,3.174718E-2,1.7628398E-3,9.271852E-3,-3.3745408E-2,2.7136297E-3,3.7911583E-2,1.9235173E-2,-4.4283412E-2,4.3311495E-2,2.0480132E-2],"categories":[],"categories_nodes":[],"categories_segments":[],"categories_sizes":[],"default_left":[0,0,0,0,0,0,0,0,0,0,0,0,0,0,0,0,0,0,0,0,0,0,0,0,0,0,0,0,0,0,0,0,0,0,0,0,0,0,0,0,0,0,0,0,0,0,0,0,0,0,0,0,0,0,0,0,0,0,0,0,0,0,0,0,0,0,0,0,0,0,0,0,0,0,0,0,0,0,0,0,0,0,0,0,0,0,0,0,0,0,0],"id":5,"left_children":[1,3,5,7,9,11,13,15,17,19,-1,21,23,25,27,29,-1,31,-1,33,35,37,39,41,43,45,-1,47,49,51,53,55,57,59,61,63,65,67,69,71,73,75,77,79,81,83,85,87,89,-1,-1,-1,-1,-1,-1,-1,-1,-1,-1,-1,-1,-1,-1,-1,-1,-1,-1,-1,-1,-1,-1,-1,-1,-1,-1,-1,-1,-1,-1,-1,-1,-1,-1,-1,-1,-1,-1,-1,-1,-1,-1],"loss_changes":[9.8186005E1,2.6183632E1,1.1457275E1,9.345936E0,1.5641238E1,8.46191E0,9.621193E0,6.1172943E0,6.288723E0,1.1578304E1,0E0,9.303822E0,6.572792E0,1.3207037E1,7.0848694E0,7.140396E0,0E0,9.83914E0,0E0,1.2193092E1,1.9273443E1,8.33408E0,7.5743313E0,1.4220577E1,1.3533529E1,1.145274E1,0E0,8.173981E0,1.4396944E1,9.703678E0,9.160515E0,1.630403E1,5.397217E0,9.13626E0,5.6603317E0,1.0399099E1,1.30120945E1,8.194475E0,1.5646976E1,1.139693E1,1.3471603E0,4.573537E0,6.5756664E0,8.029865E0,1.7390747E0,1.456134E1,2.4104557E0,1.5557472E1,2.9856262E0,0E0,0E0,0E0,0E0,0E0,0E0,0E0,0E0,0E0,0E0,0E0,0E0,0E0,0E0,0E0,0E0,0E0,0E0,0E0,0E0,0E0,0E0,0E0,0E0,0E0,0E0,0E0,0E0,0E0,0E0,0E0,0E0,0E0,0E0,0E0,0E0,0E0,0E0,0E0,0E0,0E0,0E0],"parents":[2147483647,0,0,1,1,2,2,3,3,4,4,5,5,6,6,7,7,8,8,9,9,11,11,12,12,13,13,14,14,15,15,17,17,19,19,20,20,21,21,22,22,23,23,24,24,25,25,27,27,28,28,29,29,30,30,31,31,32,32,33,33,34,34,35,35,36,36,37,37,38,38,39,39,40,40,41,41,42,42,43,43,44,44,45,45,46,46,47,47,48,48],"right_children":[2,4,6,8,10,12,14,16,18,20,-1,22,24,26,28,30,-1,32,-1,34,36,38,40,42,44,46,-1,48,50,52,54,56,58,60,62,64,66,68,70,72,74,76,78,80,82,84,86,88,90,-1,-1,-1,-1,-1,-1,-1,-1,-1,-1,-1,-1,-1,-1,-1,-1,-1,-1,-1,-1,-1,-1,-1,-1,-1,-1,-1,-1,-1,-1,-1,-1,-1,-1,-1,-1,-1,-1,-1,-1,-1,-1],"split_conditions":[5.253623E-2,3.2295387E-2,3.816794E-2,2.3698506E0,1.3207264E1,5.0114E0,4.8510814E0,2.1373107E0,3.1729642E-2,3.5955057E-2,-4.660391E-2,4.2533903E0,8.388608E0,4.6039233E0,7.738033E-2,1.9914333E0,-4.8741825E-2,2.8130671E-2,-4.6375163E-2,3.3739004E-2,2.19179E0,3.311258E-2,2.2808269E-2,3.0425964E-2,3.1512212E-2,7.8781284E-2,-4.5441482E-2,7.248596E-2,4.0816326E-2,1.744849E0,2.29265E-2,2.7909853E0,3.3829136E0,3.370044E-2,2.6496744E0,4.5220003E-2,5.1587302E-2,3.2863848E-2,5.7971016E-2,2.027027E-2,6.807131E-2,7.703169E-2,5.479452E-2,7.797348E-2,7.1875E-2,7.5093865E-2,2.0304024E0,6.8832174E-2,7.457627E-2,3.8452156E-2,-4.4201173E-2,-1.780298E-2,-5.0972454E-2,4.2392302E-2,-1.619611E-2,5.8345376E-3,-3.2002386E-2,-1.3873332E-2,7.151499E-3,-5.2058436E-3,3.555947E-2,-3.6323123E-2,-9.878151E-3,-4.783068E-2,-5.4721674E-3,1.4240527E-2,-4.164175E-2,6.5044635E-3,4.2383455E-2,-4.6201903E-2,7.6628657E-4,3.150256E-2,-4.1562136E-2,3.1004062E-2,1.4328202E-2,2.5769935E-3,-3.6386054E-2,8.298195E-3,-4.8246335E-2,-2.2523232E-2,2.7041696E-2,3.174718E-2,1.7628398E-3,9.271852E-3,-3.3745408E-2,2.7136297E-3,3.7911583E-2,1.9235173E-2,-4.4283412E-2,4.3311495E-2,2.0480132E-2],"split_indices":[2,1,3,0,0,0,0,0,1,3,0,0,0,0,1,0,0,2,0,3,0,3,3,3,3,1,0,1,3,0,1,0,0,3,0,1,2,3,2,3,2,1,1,1,2,2,0,2,1,0,0,0,0,0,0,0,0,0,0,0,0,0,0,0,0,0,0,0,0,0,0,0,0,0,0,0,0,0,0,0,0,0,0,0,0,0,0,0,0,0,0],"split_type":[0,0,0,0,0,0,0,0,0,0,0,0,0,0,0,0,0,0,0,0,0,0,0,0,0,0,0,0,0,0,0,0,0,0,0,0,0,0,0,0,0,0,0,0,0,0,0,0,0,0,0,0,0,0,0,0,0,0,0,0,0,0,0,0,0,0,0,0,0,0,0,0,0,0,0,0,0,0,0,0,0,0,0,0,0,0,0,0,0,0,0],"sum_hessian":[1.441644E3,7.571097E2,6.8453436E2,1.5518108E2,6.019286E2,3.855489E2,2.989855E2,6.0031303E1,9.514978E1,5.950368E2,6.891831E0,3.1401807E2,7.153082E1,2.0128763E2,9.769788E1,4.9934086E1,1.0097219E1,9.1408005E1,3.7417724E0,4.8729617E2,1.07740616E2,2.7767838E2,3.6339672E1,4.248521E1,2.904561E1,1.9829152E2,2.996115E0,9.188313E1,5.8147473E0,4.006954E1,9.864545E0,4.595714E1,4.5450867E1,4.5691483E2,3.0381351E1,2.4901604E1,8.283901E1,2.2507755E2,5.2600834E1,5.7934995E0,3.0546173E1,3.0972446E1,1.1512763E1,1.5563561E1,1.348205E1,1.8242963E2,1.5861887E1,6.265993E1,2.9223202E1,2.3254645E0,3.4892828E0,2.8932772E1,1.1136766E1,2.34479E0,7.5197554E0,1.4602161E1,3.135498E1,1.6287786E1,2.9163078E1,4.5289832E2,4.0164986E0,1.5541835E1,1.4839516E1,6.4516964E0,1.8449907E1,7.985841E1,2.980599E0,2.2015059E2,4.926959E0,6.4013624E0,4.6199474E1,2.5768244E0,3.216675E0,2.171485E1,8.831323E0,2.899085E1,1.9815953E0,1.9205577E0,9.592205E0,1.2723171E1,2.8403895E0,1.1312465E1,2.169585E0,1.7601889E2,6.410735E0,2.17132E0,1.3690567E1,5.991131E1,2.7486215E0,1.7811928E1,1.1411273E1],"tree_param":{"num_deleted":"0","num_feature":"4","num_nodes":"91","size_leaf_vector":"1"}},{"base_weights":[-1.2258498E-3,-2.1689819E-1,2.9654783E-1,-5.525108E-1,-1.1763502E-1,1.2083491E-1,3.819867E-1,-4.727632E-1,-5.3511936E-2,-1.879087E-1,1.4005311E-1,3.3461365E-1,-1.6045994E-1,3.1470854E-2,4.722905E-1,-5.832225E-1,4.1970062E-1,-5.3096183E-2,-4.055278E-1,-4.890185E-1,2.478329E-1,4.097295E-1,-9.853782E-1,1.3606581E-1,-5.630235E-1,1.9690259E-1,-5.279804E-2,1.1219692E0,4.3518913E-1,-6.263954E-1,5.8370835E-1,6.394307E-1,-3.6950886E-2,-1.07012E-1,9.170503E-1,4.192302E-1,-5.322955E-1,-8.851781E-1,5.6467384E-1,3.4425986E-1,-8.6426324E-1,1.757241E-2,5.577721E-1,8.048435E-3,-4.7416933E-2,-5.861105E-1,6.316018E-1,-7.9635614E-1,2.0689635E-1,-7.708968E-1,3.1887183E-1,1.4207495E0,-3.5179257E-2,7.048002E-1,3.4277156E-1,-2.5976663E-2,-1.3724191E-2,-4.262354E-3,3.485018E-2,-7.300198E-3,3.1023616E-2,-4.800256E-2,-2.403445E-3,1.2170105E-2,3.9244387E-2,1.9466104E-2,-1.9676846E-2,-5.1853016E-2,-1.3982505E-2,3.307129E-2,-3.377516E-2,3.5910714E-2,-3.2887556E-2,-1.0260342E-2,1.3435473E-2,-3.5894737E-2,1.4345181E-2,-6.026465E-3,3.53278E-2,1.9020973E-2,-4.2205375E-2,-4.988066E-2,-5.906394E-3,9.35312E-3,4.1800536E-2,2.2555444E-2,-2.7145667E-2,3.57989E-2,-2.2424096E-2,-4.761413E-2,5.4761893E-3,-4.2446207E-2,1.19100725E-2,7.890643E-3,4.6998702E-2,7.818184E-3,2.8531685E-2,1.9618873E-3,1.5899472E-2],"categories":[],"categories_nodes":[],"categories_segments":[],"categories_sizes":[],"default_left":[0,0,0,0,0,0,0,0,0,0,0,0,0,0,0,0,0,0,0,0,0,0,0,0,0,0,0,0,0,0,0,0,0,0,0,0,0,0,0,0,0,0,0,0,0,0,0,0,0,0,0,0,0,0,0,0,0,0,0,0,0,0,0,0,0,0,0,0,0,0,0,0,0,0,0,0,0,0,0,0,0,0,0,0,0,0,0,0,0,0,0,0,0,0,0,0,0,0,0],"id":6,"left_children":[1,3,5,7,9,11,13,15,-1,17,19,21,23,25,27,29,31,33,35,37,39,41,43,45,47,49,-1,51,53,55,57,59,-1,61,63,65,67,69,71,73,75,77,79,-1,-1,81,83,85,87,89,91,93,-1,95,97,-1,-1,-1,-1,-1,-1,-1,-1,-1,-1,-1,-1,-1,-1,-1,-1,-1,-1,-1,-1,-1,-1,-1,-1,-1,-1,-1,-1,-1,-1,-1,-1,-1,-1,-1,-1,-1,-1,-1,-1,-1,-1,-1,-1],"loss_changes":[9.2650665E1,2.7808025E1,9.051464E0,1.7881565E1,1.1742103E1,1.206388E1,1.28765335E1,1.803529E1,0E0,1.4904602E1,9.559246E0,1.1687583E1,1.0452024E1,2.5389486E1,7.31588E0,8.477192E0,8.210852E0,1.6590527E1,2.0554892E1,9.139595E0,1.3112703E1,6.282421E0,5.215222E0,1.8569775E1,6.822797E0,9.483598E0,0E0,1.3223015E1,7.4306335E0,5.9047356E0,2.7917998E0,6.7718E0,0E0,1.1903563E1,2.8102942E0,6.96008E0,1.2578758E1,8.622409E0,7.8932734E0,8.021757E0,4.951801E0,8.025118E0,1.2675102E1,0E0,0E0,8.562136E0,7.0309477E0,5.49263E0,9.753644E0,7.333878E0,1.0071863E1,2.183197E0,0E0,8.246624E0,1.1973974E1,0E0,0E0,0E0,0E0,0E0,0E0,0E0,0E0,0E0,0E0,0E0,0E0,0E0,0E0,0E0,0E0,0E0,0E0,0E0,0E0,0E0,0E0,0E0,0E0,0E0,0E0,0E0,0E0,0E0,0E0,0E0,0E0,0E0,0E0,0E0,0E0,0E0,0E0,0E0,0E0,0E0,0E0,0E0,0E0],"parents":[2147483647,0,0,1,1,2,2,3,3,4,4,5,5,6,6,7,7,9,9,10,10,11,11,12,12,13,13,14,14,15,15,16,16,17,17,18,18,19,19,20,20,21,21,22,22,23,23,24,24,25,25,27,27,28,28,29,29,30,30,31,31,33,33,34,34,35,35,36,36,37,37,38,38,39,39,40,40,41,41,42,42,45,45,46,46,47,47,48,48,49,49,50,50,51,51,53,53,54,54],"right_children":[2,4,6,8,10,12,14,16,-1,18,20,22,24,26,28,30,32,34,36,38,40,42,44,46,48,50,-1,52,54,56,58,60,-1,62,64,66,68,70,72,74,76,78,80,-1,-1,82,84,86,88,90,92,94,-1,96,98,-1,-1,-1,-1,-1,-1,-1,-1,-1,-1,-1,-1,-1,-1,-1,-1,-1,-1,-1,-1,-1,-1,-1,-1,-1,-1,-1,-1,-1,-1,-1,-1,-1,-1,-1,-1,-1,-1,-1,-1,-1,-1,-1,-1],"split_conditions":[5.5555556E-2,3.3717833E-2,3.0042918E-2,3.2608695E-2,3.5955057E-2,3.0199063E0,2.1208537E0,3.2034107E-2,-5.3511936E-2,2.7777778E-2,1.9601357E0,2.910959E-2,2.5531914E-2,2.0304024E0,3.0969031E-2,3.0716723E-2,3.2863848E-2,2.7372263E-2,3.686636E-2,4.4600938E-2,5.5172414E-2,1.8402376E0,6.2937066E-2,2.2633744E-2,7.319149E-2,5.7971016E-2,-5.279804E-2,7.009694E-2,2.7433503E0,2.3698506E0,6.2217016E0,2.3529412E-2,-3.6950886E-2,1.5314893E0,4.5548655E-2,3.4060178E0,3.8393036E-2,3.6036037E-2,4.694836E-2,4.2813454E-2,5.6657225E-2,2.8474577E-2,2.8257458E-2,8.048435E-3,-4.7416933E-2,3.904827E0,7.204611E-2,5.6657225E-2,7.313997E-2,1.8550498E0,1.5407853E0,5.9558116E-2,-3.5179257E-2,6.616367E-2,4.283078E0,-2.5976663E-2,-1.3724191E-2,-4.262354E-3,3.485018E-2,-7.300198E-3,3.1023616E-2,-4.800256E-2,-2.403445E-3,1.2170105E-2,3.9244387E-2,1.9466104E-2,-1.9676846E-2,-5.1853016E-2,-1.3982505E-2,3.307129E-2,-3.377516E-2,3.5910714E-2,-3.2887556E-2,-1.0260342E-2,1.3435473E-2,-3.5894737E-2,1.4345181E-2,-6.026465E-3,3.53278E-2,1.9020973E-2,-4.2205375E-2,-4.988066E-2,-5.906394E-3,9.35312E-3,4.1800536E-2,2.2555444E-2,-2.7145667E-2,3.57989E-2,-2.2424096E-2,-4.761413E-2,5.4761893E-3,-4.2446207E-2,1.19100725E-2,7.890643E-3,4.6998702E-2,7.818184E-3,2.8531685E-2,1.9618873E-3,1.5899472E-2],"split_indices":[2,1,3,2,3,0,0,2,0,3,0,3,3,0,3,3,3,3,1,3,1,0,2,3,1,2,0,1,0,0,0,3,0,0,1,0,1,3,3,1,1,3,3,0,0,0,2,1,2,0,0,1,0,1,0,0,0,0,0,0,0,0,0,0,0,0,0,0,0,0,0,0,0,0,0,0,0,0,0,0,0,0,0,0,0,0,0,0,0,0,0,0,0,0,0,0,0,0,0],"split_type":[0,0,0,0,0,0,0,0,0,0,0,0,0,0,0,0,0,0,0,0,0,0,0,0,0,0,0,0,0,0,0,0,0,0,0,0,0,0,0,0,0,0,0,0,0,0,0,0,0,0,0,0,0,0,0,0,0,0,0,0,0,0,0,0,0,0,0,0,0,0,0,0,0,0,0,0,0,0,0,0,0,0,0,0,0,0,0,0,0,0,0,0,0,0,0,0,0,0,0],"sum_hessian":[1.440671E3,8.356765E2,6.049945E2,1.8970624E2,6.459703E2,1.987209E2,4.062736E2,1.79466E2,1.0240244E1,5.0776846E2,1.3820184E2,1.1280313E2,8.591778E1,8.350312E1,3.2277045E2,1.6000842E2,1.9457571E1,3.1430447E2,1.9346399E2,1.969749E1,1.1850435E2,1.0738201E2,5.421117E0,4.9856102E1,3.606168E1,7.7258575E1,6.2445474E0,1.5857121E1,3.0691333E2,1.5474649E2,5.2619376E0,1.7713463E1,1.7441081E0,2.9859952E2,1.5704951E1,2.5467028E1,1.6799696E2,1.443155E1,5.265941E0,1.0968434E2,8.8200035E0,2.973479E1,7.764722E1,1.9219991E0,3.4991176E0,2.0214067E1,2.9642033E1,2.7648243E1,8.413438E0,8.051473E0,6.92071E1,1.4367206E1,1.4899155E0,7.6656364E1,2.3025697E2,6.229724E1,9.244925E1,2.6669953E0,2.594942E0,5.5913076E0,1.2122155E1,4.24896E0,2.9435056E2,7.6887445E0,8.016207E0,2.1311495E1,4.1555314E0,7.494909E0,1.6050206E2,1.1719644E0,1.3259585E1,4.0161934E0,1.249748E0,1.4083115E1,9.560123E1,7.157397E0,1.6626064E0,2.5718351E1,4.0164385E0,7.539779E1,2.2494328E0,4.4988656E0,1.5715202E1,2.1869219E1,7.772815E0,1.4223852E0,2.6225857E1,4.014172E0,4.399266E0,3.9797456E0,4.071727E0,2.2465389E0,6.696056E1,1.9213654E0,1.244584E1,2.8074371E1,4.8581997E1,9.3328674E1,1.369283E2],"tree_param":{"num_deleted":"0","num_feature":"4","num_nodes":"99","size_leaf_vector":"1"}},{"base_weights":[-1.354609E-3,-2.355471E-1,2.576753E-1,-5.806863E-1,-1.4596386E-1,-2.3137075E-1,2.8993973E-1,-8.7504095E-1,-3.883881E-1,-1.2766656E-1,-4.552026E-2,1.0710995E-1,-1.08015E0,1.1109178E0,2.7531028E-1,-7.068379E-1,-4.7154803E-2,-3.27086E-1,-4.5033686E-2,-1.9272101E-1,1.5599264E-1,-3.9520466E-1,5.614776E-1,-5.133363E-2,-3.219201E-1,1.2637203E0,5.8689594E-1,4.632611E-2,3.5046953E-1,-2.834748E-1,-1.054521E0,-6.3929933E-1,-5.1866183E-3,-2.235414E-1,7.5501066E-1,3.2246226E-1,-4.1666383E-1,1.9925638E-1,-4.8250947E-2,1.0271945E0,-5.6848213E-2,3.1968094E-2,-7.975948E-1,1.4676601E-2,4.1996617E-2,3.215185E-2,2.04013E-3,-2.69296E-1,2.1026501E-1,-9.696051E-1,3.6772174E-1,-2.7508287E-2,1.0695569E-2,6.8346136E-3,-4.330872E-2,6.0555716E-3,-3.0804276E-2,-1.3117186E-2,7.2698025E-3,-5.970015E-3,-3.2017674E-2,-3.243138E-2,2.9750593E-2,-4.4331156E-2,1.26223685E-2,1.3048112E-2,-2.864796E-2,1.8252106E-2,-3.9097074E-2,7.739113E-3,3.5489358E-2,-3.8427066E-2,1.608607E-2,1.49615435E-2,-4.3986894E-2,2.8706761E-2,-1.3185374E-2,9.664889E-3,-2.031729E-2,8.166897E-3,-4.6826974E-2,1.1542627E-2,-9.6803345E-3],"categories":[],"categories_nodes":[],"categories_segments":[],"categories_sizes":[],"default_left":[0,0,0,0,0,0,0,0,0,0,0,0,0,0,0,0,0,0,0,0,0,0,0,0,0,0,0,0,0,0,0,0,0,0,0,0,0,0,0,0,0,0,0,0,0,0,0,0,0,0,0,0,0,0,0,0,0,0,0,0,0,0,0,0,0,0,0,0,0,0,0,0,0,0,0,0,0,0,0,0,0,0,0],"id":7,"left_children":[1,3,5,7,9,11,13,15,17,19,-1,21,23,25,27,29,-1,31,-1,33,35,37,39,-1,41,43,45,47,49,51,53,55,57,59,61,63,65,67,-1,69,71,-1,73,-1,-1,-1,-1,75,77,79,81,-1,-1,-1,-1,-1,-1,-1,-1,-1,-1,-1,-1,-1,-1,-1,-1,-1,-1,-1,-1,-1,-1,-1,-1,-1,-1,-1,-1,-1,-1,-1,-1],"loss_changes":[8.74758E1,2.3330101E1,1.0870731E1,8.474606E0,1.4926591E1,1.2450039E1,7.4140205E0,6.0071526E0,6.056588E0,1.1023432E1,0E0,7.434728E0,5.3481092E0,1.3300991E-1,1.0875084E1,7.170023E0,0E0,9.268331E0,0E0,1.43368E1,1.0781877E1,1.1568132E1,4.9556127E0,0E0,5.3591075E0,1.1564064E-1,1.0172731E0,8.208064E0,1.1203911E1,1.0157502E1,1.4047026E1,1.546957E1,5.07119E0,9.53046E0,7.8099794E0,1.6031925E1,1.2146412E1,7.7744913E0,0E0,8.635149E-1,6.67837E0,0E0,5.6368504E0,0E0,0E0,0E0,0E0,1.1752481E1,1.0570766E1,5.1386895E0,5.6613503E0,0E0,0E0,0E0,0E0,0E0,0E0,0E0,0E0,0E0,0E0,0E0,0E0,0E0,0E0,0E0,0E0,0E0,0E0,0E0,0E0,0E0,0E0,0E0,0E0,0E0,0E0,0E0,0E0,0E0,0E0,0E0,0E0],"parents":[2147483647,0,0,1,1,2,2,3,3,4,4,5,5,6,6,7,7,8,8,9,9,11,11,12,12,13,13,14,14,15,15,17,17,19,19,20,20,21,21,22,22,24,24,25,25,26,26,27,27,28,28,29,29,30,30,31,31,32,32,33,33,34,34,35,35,36,36,37,37,39,39,40,40,42,42,47,47,48,48,49,49,50,50],"right_children":[2,4,6,8,10,12,14,16,18,20,-1,22,24,26,28,30,-1,32,-1,34,36,38,40,-1,42,44,46,48,50,52,54,56,58,60,62,64,66,68,-1,70,72,-1,74,-1,-1,-1,-1,76,78,80,82,-1,-1,-1,-1,-1,-1,-1,-1,-1,-1,-1,-1,-1,-1,-1,-1,-1,-1,-1,-1,-1,-1,-1,-1,-1,-1,-1,-1,-1,-1,-1,-1],"split_conditions":[5.253623E-2,3.2295387E-2,2.1912351E-2,2.3698506E0,1.3207264E1,2.130898E-2,5.381166E-2,2.1373107E0,3.1729642E-2,4.6039233E0,-4.552026E-2,6.521739E-2,2.173913E-2,3.1497443E0,5.882353E-2,2.2E-2,-4.7154803E-2,2.8130671E-2,-4.5033686E-2,4.7418334E-2,4.7549162E-2,2.9731145E0,7.1428575E-2,-5.133363E-2,1.7647407E0,1.751457E0,2.236136E-2,2.49899E0,1.5407853E0,2.1276595E-2,2.5210084E-2,2.7909853E0,3.3829136E0,5.2738335E-2,1.9804345E0,2.1021022E-2,5.7712026E0,5.9859157E-2,-4.8250947E-2,1.9804345E0,2.0661157E-2,3.1968094E-2,2.1768708E-2,1.4676601E-2,4.1996617E-2,3.215185E-2,2.04013E-3,1.5530918E0,5.787037E-2,2.5316456E-2,6.995885E-2,-2.7508287E-2,1.0695569E-2,6.8346136E-3,-4.330872E-2,6.0555716E-3,-3.0804276E-2,-1.3117186E-2,7.2698025E-3,-5.970015E-3,-3.2017674E-2,-3.243138E-2,2.9750593E-2,-4.4331156E-2,1.26223685E-2,1.3048112E-2,-2.864796E-2,1.8252106E-2,-3.9097074E-2,7.739113E-3,3.5489358E-2,-3.8427066E-2,1.608607E-2,1.49615435E-2,-4.3986894E-2,2.8706761E-2,-1.3185374E-2,9.664889E-3,-2.031729E-2,8.166897E-3,-4.6826974E-2,1.1542627E-2,-9.6803345E-3],"split_indices":[2,1,3,0,0,3,1,0,1,0,0,2,3,0,2,3,0,2,0,3,1,0,1,0,0,0,3,0,0,3,1,0,0,1,0,3,0,2,0,0,3,0,3,0,0,0,0,0,2,3,3,0,0,0,0,0,0,0,0,0,0,0,0,0,0,0,0,0,0,0,0,0,0,0,0,0,0,0,0,0,0,0,0],"split_type":[0,0,0,0,0,0,0,0,0,0,0,0,0,0,0,0,0,0,0,0,0,0,0,0,0,0,0,0,0,0,0,0,0,0,0,0,0,0,0,0,0,0,0,0,0,0,0,0,0,0,0,0,0,0,0,0,0,0,0,0,0,0,0,0,0,0,0,0,0,0,0,0,0,0,0,0,0,0,0,0,0,0,0],"sum_hessian":[1.4399988E3,7.563043E2,6.8369446E2,1.5472192E2,6.015824E2,4.193262E1,6.4176184E2,5.9734566E1,9.4987366E1,5.947403E2,6.842089E0,3.0602571E1,1.1330049E1,9.9237175E0,6.3183813E2,4.9741478E1,9.993091E0,9.1254005E1,3.7333612E0,4.8404904E2,1.1069128E2,1.4596258E1,1.6006311E1,5.498046E0,5.832003E0,6.5904055E0,3.3333116E0,1.5653786E2,4.7530026E2,2.3248188E1,2.6493288E1,4.582341E1,4.543059E1,4.6954352E2,1.45055065E1,8.609934E1,2.4591934E1,1.0356984E1,4.2392745E0,8.752651E0,7.253661E0,1.1722897E0,4.6597133E0,1.6721609E0,4.918245E0,1.1724242E0,2.1608872E0,5.329309E1,1.0324477E2,5.4194922E0,4.6988077E2,1.1466183E1,1.1782005E1,6.2639847E0,2.0229303E1,1.4603438E1,3.1219973E1,1.6267658E1,2.9162933E1,4.57473E2,1.207053E1,1.2489467E0,1.325656E1,3.7307856E0,8.236855E1,9.598304E0,1.4993629E1,8.607992E0,1.7489921E0,1.9213647E0,6.8312864E0,1.988843E0,5.264818E0,1.6720871E0,2.987626E0,5.932871E0,4.7360218E1,9.22507E1,1.0994065E1,1.9221656E0,3.4973269E0,4.5899973E2,1.0881048E1],"tree_param":{"num_deleted":"0","num_feature":"4","num_nodes":"83","size_leaf_vector":"1"}},{"base_weights":[-1.5607241E-3,-2.052212E-1,2.7956024E-1,-5.240998E-1,-1.1115865E-1,1.10672295E-1,3.6174005E-1,-4.4576368E-1,-5.2010518E-2,-1.7802186E-1,1.3413487E-1,3.1789133E-1,-1.6193654E-1,2.2218607E-2,4.492932E-1,-5.520426E-1,4.0983555E-1,-4.7246475E-2,-3.8921648E-1,-4.6614027E-1,2.368919E-1,3.912016E-1,-9.683849E-1,1.2805903E-1,-5.552299E-1,1.832727E-1,-5.156821E-2,7.041528E-1,3.6153963E-1,-5.936672E-1,5.682357E-1,6.243187E-1,-3.6144923E-2,-9.940885E-2,8.9153796E-1,4.1218886E-1,-5.124928E-1,-8.5287505E-1,5.5936927E-1,3.3087796E-1,-8.4589356E-1,1.1854517E-2,5.34521E-1,7.7319E-3,-4.6476047E-2,-5.6802934E-1,6.0569805E-1,-7.812461E-1,1.918866E-1,-7.422678E-1,2.9999954E-1,2.8475654E-1,9.600389E-1,1.0740973E-1,5.373816E-1,2.2173056E-3,-1.942411E-2,-4.1180085E-3,3.389026E-2,-6.943459E-3,3.0193418E-2,-4.6823088E-2,-2.1936721E-3,1.180692E-2,3.819207E-2,1.9075323E-2,-1.9129926E-2,-5.047879E-2,-1.3435118E-2,9.317868E-3,-3.898317E-2,3.5259735E-2,-3.191961E-2,-9.966753E-3,1.2932291E-2,-3.5103705E-2,1.39647545E-2,-7.3980833E-3,2.8036667E-2,1.8270038E-2,-4.139137E-2,-4.837237E-2,-5.703208E-3,-3.4204546E-2,2.1563187E-2,2.1994807E-2,-2.661768E-2,3.4686312E-2,-2.216125E-2,-4.6274636E-2,5.6608105E-3,-4.059625E-2,1.123809E-2,3.513346E-2,1.88674E-3,-6.88206E-3,3.3169184E-2,6.9853165E-3,-5.2374776E-2,1.8166237E-2,-1.9381981E-2],"categories":[],"categories_nodes":[],"categories_segments":[],"categories_sizes":[],"default_left":[0,0,0,0,0,0,0,0,0,0,0,0,0,0,0,0,0,0,0,0,0,0,0,0,0,0,0,0,0,0,0,0,0,0,0,0,0,0,0,0,0,0,0,0,0,0,0,0,0,0,0,0,0,0,0,0,0,0,0,0,0,0,0,0,0,0,0,0,0,0,0,0,0,0,0,0,0,0,0,0,0,0,0,0,0,0,0,0,0,0,0,0,0,0,0,0,0,0,0,0,0],"id":8,"left_children":[1,3,5,7,9,11,13,15,-1,17,19,21,23,25,27,29,31,33,35,37,39,41,43,45,47,49,-1,51,53,55,57,59,-1,61,63,65,67,69,71,73,75,77,79,-1,-1,81,83,85,87,89,91,93,95,97,99,-1,-1,-1,-1,-1,-1,-1,-1,-1,-1,-1,-1,-1,-1,-1,-1,-1,-1,-1,-1,-1,-1,-1,-1,-1,-1,-1,-1,-1,-1,-1,-1,-1,-1,-1,-1,-1,-1,-1,-1,-1,-1,-1,-1,-1,-1],"loss_changes":[8.251114E1,2.500859E1,8.363049E0,1.723951E1,1.0629141E1,1.1327737E1,1.2083504E1,1.658305E1,0E0,1.4027115E1,8.688878E0,1.1104871E1,9.978792E0,2.3997911E1,6.977646E0,7.8183937E0,7.8340564E0,1.5524015E1,1.9410736E1,8.67259E0,1.24318495E1,5.88311E0,4.9720435E0,1.7238424E1,6.4071302E0,8.6719055E0,0E0,8.502071E0,1.0783445E1,5.621277E0,2.633955E0,6.3513007E0,0E0,1.13913765E1,2.6703997E0,6.619083E0,1.2022804E1,8.405763E0,7.5127454E0,7.4911394E0,4.7192764E0,7.5580964E0,1.2046377E1,0E0,0E0,8.058704E0,6.8641043E0,5.2494507E0,9.297876E0,7.03053E0,9.160271E0,6.299301E0,8.975754E0,2.3760618E1,1.1937244E1,0E0,0E0,0E0,0E0,0E0,0E0,0E0,0E0,0E0,0E0,0E0,0E0,0E0,0E0,0E0,0E0,0E0,0E0,0E0,0E0,0E0,0E0,0E0,0E0,0E0,0E0,0E0,0E0,0E0,0E0,0E0,0E0,0E0,0E0,0E0,0E0,0E0,0E0,0E0,0E0,0E0,0E0,0E0,0E0,0E0,0E0],"parents":[2147483647,0,0,1,1,2,2,3,3,4,4,5,5,6,6,7,7,9,9,10,10,11,11,12,12,13,13,14,14,15,15,16,16,17,17,18,18,19,19,20,20,21,21,22,22,23,23,24,24,25,25,27,27,28,28,29,29,30,30,31,31,33,33,34,34,35,35,36,36,37,37,38,38,39,39,40,40,41,41,42,42,45,45,46,46,47,47,48,48,49,49,50,50,51,51,52,52,53,53,54,54],"right_children":[2,4,6,8,10,12,14,16,-1,18,20,22,24,26,28,30,32,34,36,38,40,42,44,46,48,50,-1,52,54,56,58,60,-1,62,64,66,68,70,72,74,76,78,80,-1,-1,82,84,86,88,90,92,94,96,98,100,-1,-1,-1,-1,-1,-1,-1,-1,-1,-1,-1,-1,-1,-1,-1,-1,-1,-1,-1,-1,-1,-1,-1,-1,-1,-1,-1,-1,-1,-1,-1,-1,-1,-1,-1,-1,-1,-1,-1,-1,-1,-1,-1,-1,-1,-1],"split_conditions":[5.5555556E-2,3.3717833E-2,3.0042918E-2,3.2608695E-2,3.5955057E-2,3.0199063E0,2.1208537E0,3.2034107E-2,-5.2010518E-2,2.7777778E-2,1.9601357E0,2.910959E-2,2.5531914E-2,2.0304024E0,2.7433503E0,3.0716723E-2,3.2863848E-2,2.7372263E-2,3.686636E-2,4.4600938E-2,5.5172414E-2,1.8402376E0,6.2937066E-2,2.2633744E-2,7.319149E-2,5.7971016E-2,-5.156821E-2,2.384562E0,4.283078E0,2.0304568E-2,6.2217016E0,2.3529412E-2,-3.6144923E-2,1.5314893E0,4.5548655E-2,3.4060178E0,3.8393036E-2,3.75E-2,4.694836E-2,4.2813454E-2,5.6657225E-2,2.7777778E-2,2.8257458E-2,7.7319E-3,-4.6476047E-2,3.904827E0,3.2686574E0,5.6657225E-2,7.313997E-2,1.8550498E0,1.5407853E0,2.1579883E0,6.040079E-2,4.1304874E0,7.797348E-2,2.2173056E-3,-1.942411E-2,-4.1180085E-3,3.389026E-2,-6.943459E-3,3.0193418E-2,-4.6823088E-2,-2.1936721E-3,1.180692E-2,3.819207E-2,1.9075323E-2,-1.9129926E-2,-5.047879E-2,-1.3435118E-2,9.317868E-3,-3.898317E-2,3.5259735E-2,-3.191961E-2,-9.966753E-3,1.2932291E-2,-3.5103705E-2,1.39647545E-2,-7.3980833E-3,2.8036667E-2,1.8270038E-2,-4.139137E-2,-4.837237E-2,-5.703208E-3,-3.4204546E-2,2.1563187E-2,2.1994807E-2,-2.661768E-2,3.4686312E-2,-2.216125E-2,-4.6274636E-2,5.6608105E-3,-4.059625E-2,1.123809E-2,3.513346E-2,1.88674E-3,-6.88206E-3,3.3169184E-2,6.9853165E-3,-5.2374776E-2,1.8166237E-2,-1.9381981E-2],"split_indices":[2,1,3,2,3,0,0,2,0,3,0,3,3,0,0,3,3,3,1,3,1,0,2,3,1,2,0,0,0,3,0,3,0,0,1,0,1,3,3,1,1,3,3,0,0,0,0,1,2,0,0,0,1,0,1,0,0,0,0,0,0,0,0,0,0,0,0,0,0,0,0,0,0,0,0,0,0,0,0,0,0,0,0,0,0,0,0,0,0,0,0,0,0,0,0,0,0,0,0,0,0],"split_type":[0,0,0,0,0,0,0,0,0,0,0,0,0,0,0,0,0,0,0,0,0,0,0,0,0,0,0,0,0,0,0,0,0,0,0,0,0,0,0,0,0,0,0,0,0,0,0,0,0,0,0,0,0,0,0,0,0,0,0,0,0,0,0,0,0,0,0,0,0,0,0,0,0,0,0,0,0,0,0,0,0,0,0,0,0,0,0,0,0,0,0,0,0,0,0,0,0,0,0,0,0],"sum_hessian":[1.4391592E3,8.347137E2,6.044455E2,1.8909538E2,6.4561835E2,1.9861603E2,4.058295E2,1.7887918E2,1.0216207E1,5.0754395E2,1.3807439E2,1.127471E2,8.586893E1,8.345479E1,3.223747E2,1.5943022E2,1.944896E1,3.1420587E2,1.9333806E2,1.9664433E1,1.1840995E2,1.07326004E2,5.4210916E0,4.981335E1,3.6055573E1,7.720793E1,6.246855E0,8.077075E1,2.4160394E2,1.5417194E2,5.2582836E0,1.770983E1,1.7391292E0,2.9851346E2,1.5692416E1,2.5462914E1,1.6787515E2,1.4401685E1,5.262748E0,1.09591774E2,8.818176E0,2.9726551E1,7.759946E1,1.9213493E0,3.4997423E0,2.0194136E1,2.9619217E1,2.7646368E1,8.409207E0,8.046588E0,6.916135E1,3.1407238E1,4.9363514E1,9.946549E1,1.4213846E2,1.1470815E1,1.4270113E2,2.6649842E0,2.5932992E0,5.588605E0,1.2121225E1,4.243193E0,2.9427026E2,7.688687E0,8.003729E0,2.1316175E1,4.1467385E0,7.4798865E0,1.6039526E2,4.078945E0,1.032274E1,4.015228E0,1.2475199E0,1.40821085E1,9.550967E1,7.156505E0,1.6616707E0,2.3794285E1,5.932266E0,7.534956E1,2.2498949E0,4.497857E0,1.5696278E1,1.2491704E0,2.8370047E1,1.4216343E0,2.6224733E1,4.0106993E0,4.3985076E0,3.973897E0,4.0726914E0,2.2462358E0,6.691511E1,5.4311438E0,2.5976095E1,5.320847E0,4.4042667E1,9.397899E1,5.4865036E0,1.3485966E2,7.2787986E0],"tree_param":{"num_deleted":"0","num_feature":"4","num_nodes":"101","size_leaf_vector":"1"}},{"base_weights":[-1.7684653E-3,-2.2290935E-1,2.427666E-1,-6.2190634E-1,-1.5337893E-1,-2.274624E-1,2.7379882E-1,-8.5388917E-1,-4.2223862E-1,-1.3893251E-1,-4.4468507E-2,9.995056E-2,-1.0478805E0,1.0873876E0,2.593322E-1,-3.8601792E-1,-1.2172701E0,3.9291048E-1,-6.147971E-1,-2.6989624E-1,-1.1280331E-2,-3.9279774E-1,5.461226E-1,-5.0000694E-2,-3.0535156E-1,3.5068624E-2,1.184774E-2,4.379249E-2,3.3011702E-1,-7.1944636E-1,7.160162E-1,-2.3632614E-1,-1.4725615E0,3.8221907E-2,-4.02447E-1,-8.8789403E-1,1.1069711E-1,-2.3459667E-1,-4.94123E-2,7.563546E-1,-7.93112E-2,1.806114E-1,-4.684113E-2,9.9848425E-1,-5.4549333E-2,3.157836E-2,-7.730331E-1,-2.5839272E-1,2.0081323E-1,-9.279148E-1,3.4657317E-1,2.6322708E-2,-2.7022015E-2,-3.0121612E-3,4.180973E-2,-3.949627E-2,2.9901138E-2,-8.880234E-3,-4.9474195E-2,1.6662866E-2,-4.388347E-2,-3.2155685E-2,-9.4744535E-3,-4.082944E-2,1.675171E-2,-5.248825E-3,-3.0242639E-2,4.4130657E-2,1.1449556E-2,-7.329458E-3,6.120648E-3,1.746791E-2,-3.8620386E-2,7.295452E-3,3.4584705E-2,-3.755703E-2,1.5743023E-2,1.4908893E-2,-4.293543E-2,2.7725713E-2,-1.267038E-2,9.241324E-3,-2.0730967E-2,8.15178E-3,-4.5051325E-2,1.0611627E-2,-3.420312E-2],"categories":[],"categories_nodes":[],"categories_segments":[],"categories_sizes":[],"default_left":[0,0,0,0,0,0,0,0,0,0,0,0,0,0,0,0,0,0,0,0,0,0,0,0,0,0,0,0,0,0,0,0,0,0,0,0,0,0,0,0,0,0,0,0,0,0,0,0,0,0,0,0,0,0,0,0,0,0,0,0,0,0,0,0,0,0,0,0,0,0,0,0,0,0,0,0,0,0,0,0,0,0,0,0,0,0,0],"id":9,"left_children":[1,3,5,7,9,11,13,15,17,19,-1,21,23,25,27,29,31,33,35,37,39,41,43,-1,45,-1,-1,47,49,51,53,55,57,-1,59,61,63,65,-1,67,69,71,-1,73,75,-1,77,79,81,83,85,-1,-1,-1,-1,-1,-1,-1,-1,-1,-1,-1,-1,-1,-1,-1,-1,-1,-1,-1,-1,-1,-1,-1,-1,-1,-1,-1,-1,-1,-1,-1,-1,-1,-1,-1,-1],"loss_changes":[7.7882355E1,2.0885715E1,1.0042465E1,4.8229065E0,1.2183926E1,1.1625012E1,7.274845E0,8.164539E0,9.992205E0,1.0688641E1,0E0,7.154549E0,5.1521664E0,1.5421677E-1,9.630154E0,9.211004E0,6.6941566E0,9.2594E0,1.0131586E1,1.4957657E1,1.7027596E1,1.07231865E1,4.669603E0,0E0,5.1480484E0,0E0,0E0,7.521899E0,1.0170017E1,6.1943655E0,3.4583814E0,1.0633493E1,4.107849E0,0E0,8.246656E0,3.5450497E0,1.0470418E1,1.4072927E1,0E0,6.5471067E0,1.4045347E1,7.4412374E0,0E0,8.551092E-1,6.3757467E0,0E0,5.436263E0,1.0912518E1,1.0174231E1,4.823368E0,5.4008484E0,0E0,0E0,0E0,0E0,0E0,0E0,0E0,0E0,0E0,0E0,0E0,0E0,0E0,0E0,0E0,0E0,0E0,0E0,0E0,0E0,0E0,0E0,0E0,0E0,0E0,0E0,0E0,0E0,0E0,0E0,0E0,0E0,0E0,0E0,0E0,0E0],"parents":[2147483647,0,0,1,1,2,2,3,3,4,4,5,5,6,6,7,7,8,8,9,9,11,11,12,12,13,13,14,14,15,15,16,16,17,17,18,18,19,19,20,20,21,21,22,22,24,24,27,27,28,28,29,29,30,30,31,31,32,32,34,34,35,35,36,36,37,37,39,39,40,40,41,41,43,43,44,44,46,46,47,47,48,48,49,49,50,50],"right_children":[2,4,6,8,10,12,14,16,18,20,-1,22,24,26,28,30,32,34,36,38,40,42,44,-1,46,-1,-1,48,50,52,54,56,58,-1,60,62,64,66,-1,68,70,72,-1,74,76,-1,78,80,82,84,86,-1,-1,-1,-1,-1,-1,-1,-1,-1,-1,-1,-1,-1,-1,-1,-1,-1,-1,-1,-1,-1,-1,-1,-1,-1,-1,-1,-1,-1,-1,-1,-1,-1,-1,-1,-1],"split_conditions":[5.253623E-2,2.9673591E-2,2.1912351E-2,2.5137537E0,1.57391205E1,2.130898E-2,5.381166E-2,1.744849E0,2.716979E0,2.6592062E0,-4.4468507E-2,6.521739E-2,2.173913E-2,4.155844E-2,5.882353E-2,1.721129E0,2.29265E-2,2.4449877E-2,2.5663717E-2,5.1771116E-2,2.758973E0,2.9731145E0,7.1428575E-2,-5.0000694E-2,1.7647407E0,3.5068624E-2,1.184774E-2,2.49899E0,1.5407853E0,2.0503262E-2,2.5666337E-2,2.1621622E-2,2.0521354E-2,3.8221907E-2,2.5927353E0,6.2636223E0,3.340816E0,2.5240757E0,-4.94123E-2,3.562341E-2,3.0969031E-2,5.9859157E-2,-4.684113E-2,1.9804345E0,2.0661157E-2,3.157836E-2,2.1768708E-2,1.5530918E0,4.976672E-2,2.5316456E-2,3.517312E1,2.6322708E-2,-2.7022015E-2,-3.0121612E-3,4.180973E-2,-3.949627E-2,2.9901138E-2,-8.880234E-3,-4.9474195E-2,1.6662866E-2,-4.388347E-2,-3.2155685E-2,-9.4744535E-3,-4.082944E-2,1.675171E-2,-5.248825E-3,-3.0242639E-2,4.4130657E-2,1.1449556E-2,-7.329458E-3,6.120648E-3,1.746791E-2,-3.8620386E-2,7.295452E-3,3.4584705E-2,-3.755703E-2,1.5743023E-2,1.4908893E-2,-4.293543E-2,2.7725713E-2,-1.267038E-2,9.241324E-3,-2.0730967E-2,8.15178E-3,-4.5051325E-2,1.0611627E-2,-3.420312E-2],"split_indices":[2,2,3,0,0,3,1,0,0,0,0,2,3,3,2,0,1,1,3,2,0,0,1,0,0,0,0,0,0,1,1,3,3,0,0,0,0,0,0,1,3,2,0,0,3,0,3,0,3,3,0,0,0,0,0,0,0,0,0,0,0,0,0,0,0,0,0,0,0,0,0,0,0,0,0,0,0,0,0,0,0,0,0,0,0,0,0],"split_type":[0,0,0,0,0,0,0,0,0,0,0,0,0,0,0,0,0,0,0,0,0,0,0,0,0,0,0,0,0,0,0,0,0,0,0,0,0,0,0,0,0,0,0,0,0,0,0,0,0,0,0,0,0,0,0,0,0,0,0,0,0,0,0,0,0,0,0,0,0,0,0,0,0,0,0,0,0,0,0,0,0,0,0,0,0,0,0],"sum_hessian":[1.4382195E3,7.5528217E2,6.829374E2,1.1090645E2,6.4437573E2,4.1887604E1,6.4104974E2,4.9786137E1,6.1120308E1,6.3853876E2,5.8369575E0,3.0567057E1,1.1320547E1,9.903793E0,6.31146E2,2.2665482E1,2.7120657E1,1.1480395E1,4.963991E1,3.1463116E2,3.239076E2,1.4582217E1,1.5984839E1,5.4958224E0,5.824724E0,8.244542E0,1.6592513E0,1.5643127E2,4.747147E2,1.7667282E1,4.9981995E0,5.998281E0,2.1122375E1,5.1609054E0,6.31949E0,3.590165E1,1.3738262E1,3.0790924E2,6.7219124E0,2.554537E1,2.983622E2,1.034933E1,4.2328873E0,8.740302E0,7.244537E0,1.1717424E0,4.6529818E0,5.3269302E1,1.03161964E2,5.414354E0,4.6930035E2,1.4097298E0,1.6257551E1,2.6533177E0,2.344882E0,3.161164E0,2.837117E0,3.1056406E0,1.8016735E1,3.5703328E0,2.7491574E0,2.6504911E1,9.396739E0,2.7286217E0,1.1009641E1,2.870073E2,2.0901936E1,7.780277E0,1.7765093E1,1.8864124E2,1.09720985E2,8.599693E0,1.7496367E0,1.9199784E0,6.820324E0,1.9836552E0,5.260882E0,1.6718332E0,2.9811487E0,5.9214444E0,4.734786E1,9.267393E1,1.0488036E1,1.9221464E0,3.4922073E0,4.6781323E2,1.4870993E0],"tree_param":{"num_deleted":"0","num_feature":"4","num_nodes":"87","size_leaf_vector":"1"}},{"base_weights":[-1.9047677E-3,-2.1658717E-1,2.3545302E-1,-4.9816424E-1,-1.22165546E-1,1.3001077E-1,3.7068227E-1,-4.2126507E-1,-5.062893E-2,-1.04827784E-1,-4.3373104E-2,1.9914177E-1,-1.7221656E-1,9.257777E-1,3.124E-1,-5.233246E-1,3.9729613E-1,-8.469041E-2,-9.7941947E-1,1.3833156E-1,6.4983255E-1,-4.099124E-1,1.7893034E-1,1.086614E0,3.920403E-2,-7.3619413E-1,3.4722325E-1,-7.937054E-1,-3.4463027E-1,5.7854044E-1,-3.414634E-2,-1.5176618E-1,1.9900995E-1,-4.7711957E-2,-1.8387748E-1,2.21118E-1,-2.1351957E-1,-3.0449915E-1,8.3433235E-1,-4.9525067E-2,-1.2970002E0,-4.1539255E-1,8.4830785E-1,1.364616E0,8.2515514E-1,-3.6225114E-2,2.5320297E-2,-4.5698825E-2,1.028177E-1,-4.5119828E-1,3.857734E-1,-1.8627647E-2,-4.576693E-2,-1.2159629E-2,1.9569766E-2,-1.0285061E-2,3.1218698E-2,-1.0674563E-3,-1.0483298E-2,-1.4250023E-2,1.1872667E-2,2.0513415E-2,-3.871091E-2,3.788749E-3,1.7895987E-2,-4.477728E-2,-3.0347856E-4,3.007165E-2,-4.0252216E-2,1.9748641E-2,3.660213E-2,1.9138964E-3,-3.531779E-2,8.029053E-3,-4.817811E-2,6.8198103E-3,-3.211586E-2,2.9734839E-2,8.578967E-4,1.2874988E-2,4.5055106E-2,1.5495681E-2,4.237509E-2,2.686978E-2,-3.4659445E-2,1.3596193E-2,-3.4470353E-2,2.9440867E-2,9.747632E-3],"categories":[],"categories_nodes":[],"categories_segments":[],"categories_sizes":[],"default_left":[0,0,0,0,0,0,0,0,0,0,0,0,0,0,0,0,0,0,0,0,0,0,0,0,0,0,0,0,0,0,0,0,0,0,0,0,0,0,0,0,0,0,0,0,0,0,0,0,0,0,0,0,0,0,0,0,0,0,0,0,0,0,0,0,0,0,0,0,0,0,0,0,0,0,0,0,0,0,0,0,0,0,0,0,0,0,0,0,0],"id":10,"left_children":[1,3,5,7,9,11,13,15,-1,17,-1,19,21,23,25,27,29,31,33,35,37,39,41,43,45,47,49,51,53,55,-1,57,59,-1,61,63,65,67,69,71,73,75,77,79,81,-1,-1,-1,83,85,87,-1,-1,-1,-1,-1,-1,-1,-1,-1,-1,-1,-1,-1,-1,-1,-1,-1,-1,-1,-1,-1,-1,-1,-1,-1,-1,-1,-1,-1,-1,-1,-1,-1,-1,-1,-1,-1,-1],"loss_changes":[7.33454E1,2.0033096E1,9.699017E0,1.6619583E1,1.2867347E1,8.091518E0,9.38253E0,1.5186672E1,0E0,9.798368E0,0E0,8.524322E0,6.1100636E0,3.9352741E0,1.0189829E1,7.449749E0,6.348419E0,1.0487321E1,5.799281E0,8.151198E0,6.7858286E0,1.3821381E1,1.2243976E1,5.8758736E-1,6.3581424E0,6.142949E0,8.299469E0,6.9990616E0,6.1946554E0,8.424616E0,0E0,1.0208113E1,1.4179939E1,0E0,7.1945558E0,7.9599066E0,1.3903972E1,1.0484919E1,1.3260117E0,4.1551237E0,6.475874E0,7.1929593E0,1.6563263E0,6.258316E-1,1.9313097E0,0E0,0E0,0E0,6.345979E0,8.485327E0,8.82777E0,0E0,0E0,0E0,0E0,0E0,0E0,0E0,0E0,0E0,0E0,0E0,0E0,0E0,0E0,0E0,0E0,0E0,0E0,0E0,0E0,0E0,0E0,0E0,0E0,0E0,0E0,0E0,0E0,0E0,0E0,0E0,0E0,0E0,0E0,0E0,0E0,0E0,0E0],"parents":[2147483647,0,0,1,1,2,2,3,3,4,4,5,5,6,6,7,7,9,9,11,11,12,12,13,13,14,14,15,15,16,16,17,17,18,18,19,19,20,20,21,21,22,22,23,23,24,24,25,25,26,26,27,27,28,28,29,29,31,31,32,32,34,34,35,35,36,36,37,37,38,38,39,39,40,40,41,41,42,42,43,43,44,44,48,48,49,49,50,50],"right_children":[2,4,6,8,10,12,14,16,-1,18,-1,20,22,24,26,28,30,32,34,36,38,40,42,44,46,48,50,52,54,56,-1,58,60,-1,62,64,66,68,70,72,74,76,78,80,82,-1,-1,-1,84,86,88,-1,-1,-1,-1,-1,-1,-1,-1,-1,-1,-1,-1,-1,-1,-1,-1,-1,-1,-1,-1,-1,-1,-1,-1,-1,-1,-1,-1,-1,-1,-1,-1,-1,-1,-1,-1,-1,-1],"split_conditions":[5.253623E-2,3.3717833E-2,3.816794E-2,3.3044845E-2,1.3207264E1,5.0114E0,3.933693E-2,3.2034107E-2,-5.062893E-2,5.206738E-2,-4.3373104E-2,4.2533903E0,8.388608E0,7.204611E-2,1.6257384E0,2.3698506E0,3.2863848E-2,3.5955057E-2,3.184163E0,3.311258E-2,2.2808269E-2,3.0425964E-2,3.1512212E-2,5.6726094E-2,3.963546E0,5.1813472E-2,4.0302265E-2,2.1373107E0,3.0716723E-2,2.3529412E-2,-3.414634E-2,2.8035045E-2,2.19179E0,-4.7711957E-2,4.9152856E0,3.0716723E-2,5.7971016E-2,2.027027E-2,3.343949E-2,7.703169E-2,5.479452E-2,2.5210084E-2,7.1875E-2,3.8674034E-2,7.119741E-2,-3.6225114E-2,2.5320297E-2,-4.5698825E-2,6.485356E-2,2.551939E0,4.155844E-2,-1.8627647E-2,-4.576693E-2,-1.2159629E-2,1.9569766E-2,-1.0285061E-2,3.1218698E-2,-1.0674563E-3,-1.0483298E-2,-1.4250023E-2,1.1872667E-2,2.0513415E-2,-3.871091E-2,3.788749E-3,1.7895987E-2,-4.477728E-2,-3.0347856E-4,3.007165E-2,-4.0252216E-2,1.9748641E-2,3.660213E-2,1.9138964E-3,-3.531779E-2,8.029053E-3,-4.817811E-2,6.8198103E-3,-3.211586E-2,2.9734839E-2,8.578967E-4,1.2874988E-2,4.5055106E-2,1.5495681E-2,4.237509E-2,2.686978E-2,-3.4659445E-2,1.3596193E-2,-3.4470353E-2,2.9440867E-2,9.747632E-3],"split_indices":[2,1,3,1,0,0,3,2,0,2,0,0,0,2,0,0,3,3,0,3,3,3,3,2,0,3,3,0,3,3,0,3,0,0,0,3,2,3,3,1,1,3,2,3,1,0,0,0,1,0,3,0,0,0,0,0,0,0,0,0,0,0,0,0,0,0,0,0,0,0,0,0,0,0,0,0,0,0,0,0,0,0,0,0,0,0,0,0,0],"split_type":[0,0,0,0,0,0,0,0,0,0,0,0,0,0,0,0,0,0,0,0,0,0,0,0,0,0,0,0,0,0,0,0,0,0,0,0,0,0,0,0,0,0,0,0,0,0,0,0,0,0,0,0,0,0,0,0,0,0,0,0,0,0,0,0,0,0,0,0,0,0,0,0,0,0,0,0,0,0,0,0,0,0,0,0,0,0,0,0,0],"sum_hessian":[1.4373708E3,7.5478235E2,6.8258856E2,1.8846883E2,5.6631354E2,3.8463702E2,2.979515E2,1.7829613E2,1.01727E1,5.600566E2,6.2569256E0,3.1331168E2,7.132533E1,2.689663E1,2.7105487E2,1.58851E2,1.9445124E1,5.4852374E2,1.1532862E1,2.7721494E2,3.6096756E1,4.2433918E1,2.8891418E1,2.2575499E1,4.3211293E0,8.064888E0,2.6299E2,6.183991E1,9.701109E1,1.7949654E1,1.4954697E0,4.440106E2,1.0451315E2,5.9579754E0,5.574886E0,2.2471393E2,5.250099E1,5.742592E0,3.0354166E1,3.0925846E1,1.1508072E1,1.5504664E1,1.3386754E1,8.896672E0,1.3678827E1,1.4988798E0,2.8222497E0,3.740366E0,4.324522E0,1.16200485E1,2.5136995E2,5.1524067E1,1.0315842E1,9.200371E1,5.0073786E0,6.0814795E0,1.1868174E1,2.803912E2,1.6361935E2,2.3294975E1,8.121818E1,3.3387833E0,2.2361023E0,1.8046623E2,4.424771E1,6.3338766E0,4.6167118E1,2.5558777E0,3.1867142E0,2.2700584E1,7.6535797E0,2.8959272E1,1.966574E0,1.9196315E0,9.588441E0,8.156126E0,7.348538E0,1.1221918E1,2.1648352E0,1.6661189E0,7.230553E0,1.0198998E1,3.4798286E0,2.829531E0,1.4949908E0,5.2135434E0,6.4065046E0,2.1899803E1,2.2947014E2],"tree_param":{"num_deleted":"0","num_feature":"4","num_nodes":"89","size_leaf_vector":"1"}},{"base_weights":[-2.0058146E-3,-1.8923934E-1,2.564877E-1,-4.8476255E-1,-1.0241641E-1,9.762207E-2,3.3389887E-1,-4.0957436E-1,-4.950293E-2,-1.6395138E-1,1.2353761E-1,2.9798746E-1,-1.6607526E-1,5.9095505E-3,4.186058E-1,-5.089042E-1,3.865344E-1,-3.937102E-2,-3.6536613E-1,-1.1831835E-2,5.317865E-1,3.6953855E-1,-9.549045E-1,1.1571526E-1,-5.476504E-1,1.6303727E-1,-5.064867E-2,1.054601E0,3.8245365E-1,-7.7348924E-1,-3.3448666E-1,5.922125E-1,-3.4911323E-2,-8.9843675E-2,8.696045E-1,4.1372696E-1,-4.8541325E-1,8.44147E-2,-5.0882347E-2,7.7237725E-1,-8.396441E-1,3.1807408E-1,4.4481505E-2,7.3614675E-3,-4.5657754E-2,-5.5198646E-1,5.73422E-1,-7.679342E-1,1.8214434E-1,-7.229568E-1,2.7478057E-1,1.3458974E0,-3.482223E-2,6.419599E-1,2.9380566E-1,-1.8116994E-2,-4.490806E-2,-1.1808614E-2,1.9085608E-2,-6.640965E-3,2.8670516E-2,-4.5749955E-2,-1.9229313E-3,4.690669E-2,1.6952634E-2,2.4724377E-3,3.4576684E-2,-4.895918E-2,-1.2668732E-2,-1.9861879E-2,5.6341793E-3,2.5583277E-2,-3.1419857E-3,-4.6354614E-2,3.0156706E-2,1.4168376E-2,1.256016E-3,-4.708438E-2,-5.5004456E-3,7.877906E-3,3.959261E-2,2.1424899E-2,-2.6147192E-2,3.370699E-2,-2.1764707E-2,-4.5027263E-2,5.4257135E-3,-3.8973186E-2,1.0375108E-2,7.1640615E-3,4.46082E-2,6.7161745E-3,2.6249046E-2,9.807068E-4,1.41262105E-2],"categories":[],"categories_nodes":[],"categories_segments":[],"categories_sizes":[],"default_left":[0,0,0,0,0,0,0,0,0,0,0,0,0,0,0,0,0,0,0,0,0,0,0,0,0,0,0,0,0,0,0,0,0,0,0,0,0,0,0,0,0,0,0,0,0,0,0,0,0,0,0,0,0,0,0,0,0,0,0,0,0,0,0,0,0,0,0,0,0,0,0,0,0,0,0,0,0,0,0,0,0,0,0,0,0,0,0,0,0,0,0,0,0,0,0],"id":11,"left_children":[1,3,5,7,9,11,13,15,-1,17,19,21,23,25,27,29,31,33,35,37,39,41,43,45,47,49,-1,51,53,55,57,59,-1,61,63,65,67,69,-1,71,73,75,-1,-1,-1,77,79,81,83,85,87,89,-1,91,93,-1,-1,-1,-1,-1,-1,-1,-1,-1,-1,-1,-1,-1,-1,-1,-1,-1,-1,-1,-1,-1,-1,-1,-1,-1,-1,-1,-1,-1,-1,-1,-1,-1,-1,-1,-1,-1,-1,-1,-1],"loss_changes":[6.9605064E1,2.1350225E1,7.3968773E0,1.5895161E1,9.0010605E0,1.05818405E1,1.1271324E1,1.4350925E1,0E0,1.2734744E1,7.6782713E0,1.0539391E1,9.386841E0,2.2716873E1,7.0112953E0,7.105076E0,7.2012844E0,1.4531727E1,1.8349676E1,1.7201622E1,1.2061908E1,5.7278166E0,4.7412915E0,1.5811735E1,6.089363E0,7.926781E0,0E0,1.2388063E1,6.8670006E0,6.7806396E0,5.8717413E0,5.7396317E0,0E0,1.0963981E1,2.6384563E0,6.378982E0,1.1512951E1,7.8805747E0,0E0,2.2012825E0,8.896374E0,4.439847E0,0E0,0E0,0E0,7.6379337E0,6.745493E0,5.0184307E0,8.837661E0,6.612033E0,8.282301E0,2.032322E0,0E0,7.3296204E0,1.0639664E1,0E0,0E0,0E0,0E0,0E0,0E0,0E0,0E0,0E0,0E0,0E0,0E0,0E0,0E0,0E0,0E0,0E0,0E0,0E0,0E0,0E0,0E0,0E0,0E0,0E0,0E0,0E0,0E0,0E0,0E0,0E0,0E0,0E0,0E0,0E0,0E0,0E0,0E0,0E0,0E0],"parents":[2147483647,0,0,1,1,2,2,3,3,4,4,5,5,6,6,7,7,9,9,10,10,11,11,12,12,13,13,14,14,15,15,16,16,17,17,18,18,19,19,20,20,21,21,22,22,23,23,24,24,25,25,27,27,28,28,29,29,30,30,31,31,33,33,34,34,35,35,36,36,37,37,39,39,40,40,41,41,45,45,46,46,47,47,48,48,49,49,50,50,51,51,53,53,54,54],"right_children":[2,4,6,8,10,12,14,16,-1,18,20,22,24,26,28,30,32,34,36,38,40,42,44,46,48,50,-1,52,54,56,58,60,-1,62,64,66,68,70,-1,72,74,76,-1,-1,-1,78,80,82,84,86,88,90,-1,92,94,-1,-1,-1,-1,-1,-1,-1,-1,-1,-1,-1,-1,-1,-1,-1,-1,-1,-1,-1,-1,-1,-1,-1,-1,-1,-1,-1,-1,-1,-1,-1,-1,-1,-1,-1,-1,-1,-1,-1,-1],"split_conditions":[5.5555556E-2,3.3717833E-2,3.0042918E-2,3.2608695E-2,3.5955057E-2,3.0199063E0,2.1208537E0,3.2034107E-2,-4.950293E-2,2.7777778E-2,5.0721917E0,2.910959E-2,2.5531914E-2,2.0304024E0,3.0969031E-2,2.3698506E0,3.2863848E-2,2.7372263E-2,3.686636E-2,4.465996E0,4.519774E-2,2.953958E0,6.2937066E-2,2.2633744E-2,7.319149E-2,5.7971016E-2,-5.064867E-2,7.009694E-2,2.7433503E0,2.1373107E0,3.0716723E-2,2.3529412E-2,-3.4911323E-2,1.5314893E0,3.4705684E-2,3.2307692E-2,3.8393036E-2,4.1984733E-2,-5.0882347E-2,5.44E-2,5.5933483E-2,6.7027025E-2,4.4481505E-2,7.3614675E-3,-4.5657754E-2,3.904827E0,7.204611E-2,5.6657225E-2,7.313997E-2,1.8550498E0,1.5407853E0,5.9558116E-2,-3.482223E-2,6.616367E-2,4.283078E0,-1.8116994E-2,-4.490806E-2,-1.1808614E-2,1.9085608E-2,-6.640965E-3,2.8670516E-2,-4.5749955E-2,-1.9229313E-3,4.690669E-2,1.6952634E-2,2.4724377E-3,3.4576684E-2,-4.895918E-2,-1.2668732E-2,-1.9861879E-2,5.6341793E-3,2.5583277E-2,-3.1419857E-3,-4.6354614E-2,3.0156706E-2,1.4168376E-2,1.256016E-3,-4.708438E-2,-5.5004456E-3,7.877906E-3,3.959261E-2,2.1424899E-2,-2.6147192E-2,3.370699E-2,-2.1764707E-2,-4.5027263E-2,5.4257135E-3,-3.8973186E-2,1.0375108E-2,7.1640615E-3,4.46082E-2,6.7161745E-3,2.6249046E-2,9.807068E-4,1.41262105E-2],"split_indices":[2,1,3,2,3,0,0,2,0,3,0,3,3,0,3,0,3,3,1,0,3,0,2,3,1,2,0,1,0,0,3,3,0,0,1,3,1,2,0,1,1,1,0,0,0,0,2,1,2,0,0,1,0,1,0,0,0,0,0,0,0,0,0,0,0,0,0,0,0,0,0,0,0,0,0,0,0,0,0,0,0,0,0,0,0,0,0,0,0,0,0,0,0,0,0],"split_type":[0,0,0,0,0,0,0,0,0,0,0,0,0,0,0,0,0,0,0,0,0,0,0,0,0,0,0,0,0,0,0,0,0,0,0,0,0,0,0,0,0,0,0,0,0,0,0,0,0,0,0,0,0,0,0,0,0,0,0,0,0,0,0,0,0,0,0,0,0,0,0,0,0,0,0,0,0,0,0,0,0,0,0,0,0,0,0,0,0,0,0,0,0,0,0],"sum_hessian":[1.4361584E3,8.3303656E2,6.0312195E2,1.8812462E2,6.449119E2,1.9834114E2,4.0478082E2,1.7799193E2,1.0132694E1,5.070888E2,1.3782312E2,1.1263075E2,8.571038E1,8.330184E1,3.2147897E2,1.5856825E2,1.9423676E1,3.1404138E2,1.9304742E2,1.0423224E2,3.359089E1,1.07213005E2,5.4177475E0,4.9702316E1,3.6008064E1,7.705882E1,6.24302E0,1.5775868E1,3.057031E2,6.1635212E1,9.6933044E1,1.7694105E1,1.7295697E0,2.983747E2,1.5666683E1,2.5447763E1,1.6759967E2,9.9496376E1,4.735857E0,2.8949135E1,4.6417522E0,1.03704285E2,3.5087218E0,1.9202167E0,3.4975307E0,2.0130297E1,2.957202E1,2.7619144E1,8.38892E0,8.017734E0,6.9041084E1,1.4289411E1,1.4864571E0,7.62497E1,2.294534E2,5.1416878E1,1.0218332E1,9.1927284E1,5.005762E0,5.584648E0,1.2109457E1,4.232109E0,2.9414258E2,3.5171142E0,1.2149569E1,1.8336634E1,7.111129E0,7.448577E0,1.601511E2,1.144693E1,8.8049446E1,2.654379E1,2.4053445E0,3.4752238E0,1.1665285E0,6.609426E1,3.7610023E1,4.4872785E0,1.5643018E1,2.1831636E1,7.7403836E0,1.4200933E0,2.619905E1,4.0010357E0,4.387884E0,3.9538462E0,4.063887E0,2.235797E0,6.680529E1,1.9190681E0,1.2370343E1,2.7989273E1,4.826043E1,9.319983E1,1.3625357E2],"tree_param":{"num_deleted":"0","num_feature":"4","num_nodes":"95","size_leaf_vector":"1"}},{"base_weights":[-2.0988325E-3,-1.8392538E-1,2.4897322E-1,-4.718143E-1,-9.948475E-2,9.487372E-2,3.240922E-1,-3.983629E-1,-4.8443645E-2,-4.4205293E-2,-8.9208E-2,2.893781E-1,-1.6119626E-1,4.3201926E-3,4.0670344E-1,-4.9494007E-1,3.7484434E-1,-1.4646052E-1,1.1946489E-1,3.3977354E-1,-4.1865356E-2,-6.963651E-1,3.1522717E-2,1.5738526E-1,-4.9413998E-2,1.0273744E0,3.7150458E-1,-7.539539E-1,-3.2465747E-1,5.4900485E-1,-3.300346E-2,-1.6214538E-2,-3.5477522E-1,-4.3831378E-1,2.1482898E-1,-3.6180407E-2,4.8058307E-1,-7.151903E-2,-1.1454631E0,7.2188866E-1,-2.876225E-1,-7.068695E-1,2.6629126E-1,1.3134588E0,-3.423049E-2,6.242826E-1,2.8525478E-1,-1.7622178E-2,-4.4098053E-2,-1.1468256E-2,1.8616214E-2,-9.725924E-3,2.9612767E-2,-1.9453802E-3,2.5436407E-2,1.2081008E-2,-1.4147662E-2,-4.30628E-2,-1.1239233E-3,9.160854E-3,-2.478175E-2,3.5726253E-3,-4.2265758E-2,1.710013E-2,-2.4201723E-2,-4.5482125E-2,2.2922615E-2,-4.2987555E-2,2.9871518E-2,2.9568357E-2,3.7992103E-3,-1.7089963E-2,1.0188546E-2,-4.407754E-2,5.295914E-3,1.26724215E-2,-1.3693735E-2,7.0241145E-3,4.3540545E-2,6.523878E-3,2.5546184E-2,9.5163455E-4,1.3721E-2],"categories":[],"categories_nodes":[],"categories_segments":[],"categories_sizes":[],"default_left":[0,0,0,0,0,0,0,0,0,0,0,0,0,0,0,0,0,0,0,0,0,0,0,0,0,0,0,0,0,0,0,0,0,0,0,0,0,0,0,0,0,0,0,0,0,0,0,0,0,0,0,0,0,0,0,0,0,0,0,0,0,0,0,0,0,0,0,0,0,0,0,0,0,0,0,0,0,0,0,0,0,0,0],"id":12,"left_children":[1,3,5,7,9,11,13,15,-1,-1,17,19,21,23,25,27,29,31,33,35,-1,37,39,41,-1,43,45,47,49,51,-1,53,55,57,59,61,63,65,67,69,71,73,75,77,-1,79,81,-1,-1,-1,-1,-1,-1,-1,-1,-1,-1,-1,-1,-1,-1,-1,-1,-1,-1,-1,-1,-1,-1,-1,-1,-1,-1,-1,-1,-1,-1,-1,-1,-1,-1,-1,-1],"loss_changes":[6.5601906E1,2.0213366E1,6.9561653E0,1.5202576E1,8.985936E0,9.969029E0,1.0706589E1,1.3528084E1,0E0,0E0,7.6869674E0,1.011806E1,8.957832E0,2.1551762E1,6.6558304E0,6.7798424E0,5.8465185E0,1.3674129E1,7.475133E0,5.897873E0,0E0,6.36742E0,1.4453538E1,7.5299134E0,0E0,1.1871666E1,6.50222E0,6.5796432E0,5.566147E0,7.5577846E0,0E0,1.3135494E1,1.7348444E1,8.175529E0,1.1482323E1,6.8171387E0,9.77067E0,1.4046871E1,9.616104E0,3.1287336E0,8.142376E0,6.322598E0,8.091287E0,1.9279556E0,0E0,6.9438E0,1.0034784E1,0E0,0E0,0E0,0E0,0E0,0E0,0E0,0E0,0E0,0E0,0E0,0E0,0E0,0E0,0E0,0E0,0E0,0E0,0E0,0E0,0E0,0E0,0E0,0E0,0E0,0E0,0E0,0E0,0E0,0E0,0E0,0E0,0E0,0E0,0E0,0E0],"parents":[2147483647,0,0,1,1,2,2,3,3,4,4,5,5,6,6,7,7,10,10,11,11,12,12,13,13,14,14,15,15,16,16,17,17,18,18,19,19,21,21,22,22,23,23,25,25,26,26,27,27,28,28,29,29,31,31,32,32,33,33,34,34,35,35,36,36,37,37,38,38,39,39,40,40,41,41,42,42,43,43,45,45,46,46],"right_children":[2,4,6,8,10,12,14,16,-1,-1,18,20,22,24,26,28,30,32,34,36,-1,38,40,42,-1,44,46,48,50,52,-1,54,56,58,60,62,64,66,68,70,72,74,76,78,-1,80,82,-1,-1,-1,-1,-1,-1,-1,-1,-1,-1,-1,-1,-1,-1,-1,-1,-1,-1,-1,-1,-1,-1,-1,-1,-1,-1,-1,-1,-1,-1,-1,-1,-1,-1,-1,-1],"split_conditions":[5.5555556E-2,3.3717833E-2,3.0042918E-2,3.3044845E-2,2.0100502E-2,3.0199063E0,2.1208537E0,3.2034107E-2,-4.8443645E-2,-4.4205293E-2,3.5955057E-2,2.95858E-2,3.8647807E0,2.0304024E0,3.0969031E-2,2.3698506E0,3.2863848E-2,2.7777778E-2,1.9601357E0,1.8469366E0,-4.1865356E-2,6.295399E-2,4.3891416E0,5.7971016E-2,-4.9413998E-2,7.009694E-2,2.7433503E0,2.1373107E0,3.0716723E-2,2.3529412E-2,-3.300346E-2,2.7372263E-2,3.686636E-2,4.5220003E-2,5.5172414E-2,1.7988565E0,2.8257458E-2,5.83691E-2,2.9411765E-2,2.5531914E-2,7.2949335E-2,1.8550498E0,7.313997E-2,5.9558116E-2,-3.423049E-2,6.616367E-2,4.283078E0,-1.7622178E-2,-4.4098053E-2,-1.1468256E-2,1.8616214E-2,-9.725924E-3,2.9612767E-2,-1.9453802E-3,2.5436407E-2,1.2081008E-2,-1.4147662E-2,-4.30628E-2,-1.1239233E-3,9.160854E-3,-2.478175E-2,3.5726253E-3,-4.2265758E-2,1.710013E-2,-2.4201723E-2,-4.5482125E-2,2.2922615E-2,-4.2987555E-2,2.9871518E-2,2.9568357E-2,3.7992103E-3,-1.7089963E-2,1.0188546E-2,-4.407754E-2,5.295914E-3,1.26724215E-2,-1.3693735E-2,7.0241145E-3,4.3540545E-2,6.523878E-3,2.5546184E-2,9.5163455E-4,1.3721E-2],"split_indices":[2,1,3,1,3,0,0,2,0,0,3,3,0,0,3,0,3,3,0,0,0,1,0,2,0,1,0,0,3,3,0,3,1,1,1,0,3,2,3,3,1,0,2,1,0,1,0,0,0,0,0,0,0,0,0,0,0,0,0,0,0,0,0,0,0,0,0,0,0,0,0,0,0,0,0,0,0,0,0,0,0,0,0],"split_type":[0,0,0,0,0,0,0,0,0,0,0,0,0,0,0,0,0,0,0,0,0,0,0,0,0,0,0,0,0,0,0,0,0,0,0,0,0,0,0,0,0,0,0,0,0,0,0,0,0,0,0,0,0,0,0,0,0,0,0,0,0,0,0,0,0,0,0,0,0,0,0,0,0,0,0,0,0,0,0,0,0,0,0],"sum_hessian":[1.4350103E3,8.324308E2,6.0257947E2,1.877466E2,6.446842E2,1.9821768E2,4.043618E2,1.77677E2,1.0069597E1,3.728971E0,6.409552E2,1.1257696E2,8.5640724E1,8.3233475E1,3.2112833E2,1.5826842E2,1.9408573E1,5.0319446E2,1.3776076E2,1.100827E2,2.4942565E0,2.198271E1,6.3658016E1,7.7001305E1,6.2321715E0,1.5721374E1,3.0540695E2,6.1418377E1,9.6850044E1,1.7920355E1,1.4882195E0,3.1027625E2,1.9291823E2,1.9589102E1,1.1817165E2,3.0198193E1,7.988451E1,9.67742E0,1.2305289E1,1.9725794E1,4.3932224E1,8.002728E0,6.899858E1,1.4237265E1,1.4841093E0,7.610955E1,2.292974E2,5.130459E1,1.0113788E1,9.184677E1,5.003269E0,6.0738454E0,1.1846509E1,2.946199E2,1.5656327E1,2.5448755E1,1.6746947E2,4.876889E0,1.47122135E1,1.0936601E2,8.805648E0,2.7949932E1,2.2482598E0,7.5216866E1,4.667641E0,3.2480412E0,6.429379E0,1.1140455E1,1.1648347E0,1.3215084E1,6.5107093E0,3.0368582E1,1.3563642E1,3.9396217E0,4.0631065E0,5.70834E1,1.1915178E1,1.9185152E0,1.2318749E1,2.7979479E1,4.8130077E1,9.3196434E1,1.3610097E2],"tree_param":{"num_deleted":"0","num_feature":"4","num_nodes":"83","size_leaf_vector":"1"}},{"base_weights":[-2.263715E-3,-1.9964458E-1,2.1603742E-1,-5.61318E-1,-1.3706097E-1,-2.309257E-1,2.4555647E-1,9.580004E-2,-6.220586E-1,-1.23261064E-1,-4.2718153E-2,8.5546054E-2,-1.0227467E0,1.053503E0,2.312363E-1,1.0071238E0,-4.0336773E-2,-6.669608E-1,4.1753957E-1,-2.4584302E-1,-3.8899444E-3,-4.0135935E-1,5.2735215E-1,-4.894974E-2,-2.9176128E-1,3.4015637E-2,1.1334175E-2,3.4739047E-2,2.958414E-1,1.2051767E0,9.605953E-3,-6.021627E-1,-4.5060057E-2,4.232149E-2,-3.2731712E-2,-1.8595669E-1,-1.0037544E0,7.499126E-1,-7.076927E-2,1.4420283E-1,-4.5306064E-2,9.66524E-1,-5.5062525E-2,3.0753318E-2,-7.4726194E-1,-2.5368714E-1,1.8470238E-1,-9.010534E-1,3.1155038E-1,1.456624E-2,4.24219E-2,-2.0360269E-2,1.311205E-2,-4.614975E-3,-4.6204165E-2,-5.181519E-2,-9.341697E-3,4.330451E-2,1.1552592E-2,-6.7656967E-3,5.852723E-3,1.6174909E-2,-3.85153E-2,6.872687E-3,3.3561133E-2,-3.6622692E-2,1.5240256E-2,1.4560687E-2,-4.1678455E-2,-3.2734618E-2,-3.8090083E-4,8.793162E-3,-2.0157542E-2,7.7895015E-3,-4.371613E-2,9.843853E-3,-1.0663561E-2],"categories":[],"categories_nodes":[],"categories_segments":[],"categories_sizes":[],"default_left":[0,0,0,0,0,0,0,0,0,0,0,0,0,0,0,0,0,0,0,0,0,0,0,0,0,0,0,0,0,0,0,0,0,0,0,0,0,0,0,0,0,0,0,0,0,0,0,0,0,0,0,0,0,0,0,0,0,0,0,0,0,0,0,0,0,0,0,0,0,0,0,0,0,0,0,0,0],"id":13,"left_children":[1,3,5,7,9,11,13,15,17,19,-1,21,23,25,27,29,-1,31,33,35,37,39,41,-1,43,-1,-1,45,47,49,-1,51,-1,-1,-1,53,55,57,59,61,-1,63,65,-1,67,69,71,73,75,-1,-1,-1,-1,-1,-1,-1,-1,-1,-1,-1,-1,-1,-1,-1,-1,-1,-1,-1,-1,-1,-1,-1,-1,-1,-1,-1,-1],"loss_changes":[6.186439E1,1.698971E1,9.051693E0,4.486107E0,1.1262873E1,1.0800501E1,7.161175E0,1.4809102E1,5.0236053E0,9.339982E0,0E0,6.9806705E0,4.9919634E0,1.6150379E-1,7.989128E0,5.460148E-1,0E0,4.3889236E0,8.766592E0,1.4107443E1,1.6408873E1,9.6168165E0,4.3834395E0,0E0,4.845225E0,0E0,0E0,6.839753E0,9.194511E0,5.8276176E-2,0E0,7.647949E0,0E0,0E0,0E0,1.251322E1,1.0899216E1,6.1558046E0,1.2341861E1,7.0805182E0,0E0,8.3290005E-1,6.018091E0,0E0,5.130609E0,1.09136305E1,9.845562E0,4.5088334E0,5.299225E0,0E0,0E0,0E0,0E0,0E0,0E0,0E0,0E0,0E0,0E0,0E0,0E0,0E0,0E0,0E0,0E0,0E0,0E0,0E0,0E0,0E0,0E0,0E0,0E0,0E0,0E0,0E0,0E0],"parents":[2147483647,0,0,1,1,2,2,3,3,4,4,5,5,6,6,7,7,8,8,9,9,11,11,12,12,13,13,14,14,15,15,17,17,18,18,19,19,20,20,21,21,22,22,24,24,27,27,28,28,29,29,31,31,35,35,36,36,37,37,38,38,39,39,41,41,42,42,44,44,45,45,46,46,47,47,48,48],"right_children":[2,4,6,8,10,12,14,16,18,20,-1,22,24,26,28,30,-1,32,34,36,38,40,42,-1,44,-1,-1,46,48,50,-1,52,-1,-1,-1,54,56,58,60,62,-1,64,66,-1,68,70,72,74,76,-1,-1,-1,-1,-1,-1,-1,-1,-1,-1,-1,-1,-1,-1,-1,-1,-1,-1,-1,-1,-1,-1,-1,-1,-1,-1,-1,-1],"split_conditions":[5.253623E-2,2.9673591E-2,2.1912351E-2,2.0304568E-2,1.57391205E1,2.130898E-2,5.381166E-2,2.29265E-2,2.9411765E-2,2.6592062E0,-4.2718153E-2,6.521739E-2,2.173913E-2,4.155844E-2,5.882353E-2,2.6991425E0,-4.0336773E-2,2.7149322E-2,2.9216468E-2,2.5240757E0,2.758973E0,2.9731145E0,7.1428575E-2,-4.894974E-2,1.7647407E0,3.4015637E-2,1.1334175E-2,2.49899E0,1.5407853E0,2.020202E-2,9.605953E-3,2.610966E-2,-4.5060057E-2,4.232149E-2,-3.2731712E-2,5.1771116E-2,4.4444446E-2,3.562341E-2,3.0969031E-2,5.9859157E-2,-4.5306064E-2,1.9804345E0,2.0661157E-2,3.0753318E-2,2.1768708E-2,2.6246719E-2,5.787037E-2,2.5316456E-2,6.995885E-2,1.456624E-2,4.24219E-2,-2.0360269E-2,1.311205E-2,-4.614975E-3,-4.6204165E-2,-5.181519E-2,-9.341697E-3,4.330451E-2,1.1552592E-2,-6.7656967E-3,5.852723E-3,1.6174909E-2,-3.85153E-2,6.872687E-3,3.3561133E-2,-3.6622692E-2,1.5240256E-2,1.4560687E-2,-4.1678455E-2,-3.2734618E-2,-3.8090083E-4,8.793162E-3,-2.0157542E-2,7.7895015E-3,-4.371613E-2,9.843853E-3,-1.0663561E-2],"split_indices":[2,2,3,3,0,3,1,1,3,0,0,2,3,3,2,0,0,3,1,0,0,0,1,0,0,0,0,0,0,3,0,3,0,0,0,2,1,1,3,2,0,0,3,0,3,3,2,3,3,0,0,0,0,0,0,0,0,0,0,0,0,0,0,0,0,0,0,0,0,0,0,0,0,0,0,0,0],"split_type":[0,0,0,0,0,0,0,0,0,0,0,0,0,0,0,0,0,0,0,0,0,0,0,0,0,0,0,0,0,0,0,0,0,0,0,0,0,0,0,0,0,0,0,0,0,0,0,0,0,0,0,0,0,0,0,0,0,0,0,0,0,0,0,0,0,0,0,0,0,0,0,0,0,0,0,0,0],"sum_hessian":[1.4337518E3,7.5299945E2,6.807524E2,1.0990198E2,6.430975E2,4.175132E1,6.390011E2,9.25036E0,1.0065162E2,6.373585E2,5.738968E0,3.0466541E1,1.1284779E1,9.86472E0,6.2913635E2,5.8498855E0,3.4004743E0,9.682788E1,3.8237371E0,3.1392752E2,3.23431E2,1.4537077E1,1.5929463E1,5.4842553E0,5.8005238E0,8.210326E0,1.6543946E0,1.56049E2,4.7308734E2,3.9551067E0,1.8947785E0,9.145241E1,5.3754683E0,2.3448796E0,1.4788576E0,2.9209314E2,2.1834375E1,2.5524889E1,2.979061E2,1.0326355E1,4.210722E0,8.705523E0,7.2239413E0,1.1693548E0,4.631169E0,5.31443E1,1.029047E2,5.3986096E0,4.6768875E2,1.6376532E0,2.3174536E0,8.550414E1,5.9482646E0,2.8641238E2,5.680737E0,9.946817E0,1.1887557E1,7.7792077E0,1.7745682E1,1.8839522E2,1.09510895E2,8.576706E0,1.7496493E0,1.9177735E0,6.787749E0,1.9724525E0,5.2514887E0,1.6696378E0,2.9615312E0,1.1087232E1,4.2057068E1,9.1929146E1,1.09755535E1,1.921504E0,3.4771056E0,4.5684216E2,1.084659E1],"tree_param":{"num_deleted":"0","num_feature":"4","num_nodes":"77","size_leaf_vector":"1"}},{"base_weights":[-2.3732446E-3,-1.7408966E-1,2.3477694E-1,-4.4865203E-1,-9.381136E-2,2.4180157E-1,-3.7891686E-2,-3.764033E-1,-4.7313564E-2,-4.3033175E-2,-8.381985E-2,-3.133284E-2,2.8116277E-1,-4.692053E-1,3.6460203E-1,-1.327193E-1,1.349418E-1,1.2145098E-1,-9.7456574E-1,8.4367615E-1,2.4582706E-1,-7.217981E-1,-3.0385086E-1,5.6203383E-1,-3.3774078E-2,-1.037411E-2,-3.0945462E-1,5.6096506E-1,-2.9689621E-2,-2.8930457E-2,8.177751E-1,-1.2846711E0,1.3555224E-2,4.3248847E-1,1.1085513E0,-4.911669E-2,2.6345056E-1,-1.6736232E-2,-4.3051533E-2,2.4817208E-2,-1.0476312E-2,-6.3707833E-3,2.7257372E-2,-1.7267627E-3,2.4852267E-2,-2.0517422E-2,-4.5613814E-3,-1.5335846E-2,2.5804263E-2,6.435121E-4,-4.0306248E-2,1.379352E-3,-4.103428E-2,3.470484E-2,-3.453661E-2,-5.0583933E-2,-3.6160413E-3,2.2909481E-2,-1.52129335E-2,4.60202E-2,2.5339015E-2,-4.8284675E-3,8.892979E-3],"categories":[],"categories_nodes":[],"categories_segments":[],"categories_sizes":[],"default_left":[0,0,0,0,0,0,0,0,0,0,0,0,0,0,0,0,0,0,0,0,0,0,0,0,0,0,0,0,0,0,0,0,0,0,0,0,0,0,0,0,0,0,0,0,0,0,0,0,0,0,0,0,0,0,0,0,0,0,0,0,0,0,0],"id":14,"left_children":[1,3,5,7,9,11,-1,13,-1,-1,15,17,19,21,23,25,27,29,31,33,35,37,39,41,-1,43,45,47,49,51,53,55,-1,57,59,-1,61,-1,-1,-1,-1,-1,-1,-1,-1,-1,-1,-1,-1,-1,-1,-1,-1,-1,-1,-1,-1,-1,-1,-1,-1,-1,-1],"loss_changes":[5.8428654E1,1.8300787E1,6.6457253E0,1.4734943E1,8.522024E0,6.466007E0,0E0,1.2412338E1,0E0,0E0,6.88002E0,1.1150369E1,1.0229256E1,6.406498E0,6.6282187E0,1.1344189E1,8.270969E0,7.015444E0,5.3497963E0,2.855791E0,1.6873104E1,6.4524918E0,5.2963867E0,5.2002854E0,0E0,1.2362226E1,1.2547686E1,1.0977911E1,5.7961407E0,5.6670213E0,9.2715E0,4.0575705E0,0E0,4.6305866E0,7.238102E-1,0E0,6.9304733E0,0E0,0E0,0E0,0E0,0E0,0E0,0E0,0E0,0E0,0E0,0E0,0E0,0E0,0E0,0E0,0E0,0E0,0E0,0E0,0E0,0E0,0E0,0E0,0E0,0E0,0E0],"parents":[2147483647,0,0,1,1,2,2,3,3,4,4,5,5,7,7,10,10,11,11,12,12,13,13,14,14,15,15,16,16,17,17,18,18,19,19,20,20,21,21,22,22,23,23,25,25,26,26,27,27,28,28,29,29,30,30,31,31,33,33,34,34,36,36],"right_children":[2,4,6,8,10,12,-1,14,-1,-1,16,18,20,22,24,26,28,30,32,34,36,38,40,42,-1,44,46,48,50,52,54,56,-1,58,60,-1,62,-1,-1,-1,-1,-1,-1,-1,-1,-1,-1,-1,-1,-1,-1,-1,-1,-1,-1,-1,-1,-1,-1,-1,-1,-1,-1],"split_conditions":[5.5555556E-2,3.3717833E-2,3.517312E1,3.2608695E-2,2.0100502E-2,1.8332682E0,-3.7891686E-2,3.2034107E-2,-4.7313564E-2,-4.3033175E-2,3.722504E-2,1.7744732E0,1.9095483E0,2.3698506E0,3.2863848E-2,2.7777778E-2,3.916084E-2,1.744849E0,5.1391862E-2,6.2293276E-2,1.9509459E0,2.1373107E0,2.3989365E0,2.3529412E-2,-3.3774078E-2,2.7372263E-2,3.0150754E-2,4.2813454E-2,5.263158E-2,1.7308176E0,7.009694E-2,7.438017E-2,1.3555224E-2,6.1962135E-2,6.656101E-2,-4.911669E-2,2.244389E-2,-1.6736232E-2,-4.3051533E-2,2.4817208E-2,-1.0476312E-2,-6.3707833E-3,2.7257372E-2,-1.7267627E-3,2.4852267E-2,-2.0517422E-2,-4.5613814E-3,-1.5335846E-2,2.5804263E-2,6.435121E-4,-4.0306248E-2,1.379352E-3,-4.103428E-2,3.470484E-2,-3.453661E-2,-5.0583933E-2,-3.6160413E-3,2.2909481E-2,-1.52129335E-2,4.60202E-2,2.5339015E-2,-4.8284675E-3,8.892979E-3],"split_indices":[2,1,0,2,3,0,0,2,0,0,3,0,0,0,3,3,3,0,3,2,0,0,0,3,0,3,3,1,3,0,1,1,0,1,1,0,3,0,0,0,0,0,0,0,0,0,0,0,0,0,0,0,0,0,0,0,0,0,0,0,0,0,0],"split_type":[0,0,0,0,0,0,0,0,0,0,0,0,0,0,0,0,0,0,0,0,0,0,0,0,0,0,0,0,0,0,0,0,0,0,0,0,0,0,0,0,0,0,0,0,0,0,0,0,0,0,0,0,0,0,0,0,0,0,0,0,0,0,0],"sum_hessian":[1.4327938E3,8.312011E2,6.015927E2,1.870108E2,6.441903E2,5.9961914E2,1.9735664E0,1.7701141E2,9.999389E0,3.7108808E0,6.4047943E2,7.55523E1,5.2406683E2,1.5763618E2,1.9375233E1,5.237907E2,1.1668877E2,6.577016E1,9.782138E0,2.9622751E1,4.944441E2,6.103497E1,9.660121E1,1.7658884E1,1.7163491E0,3.1014868E2,2.13642E2,3.1853304E1,8.483546E1,5.4877094E1,1.0893064E1,8.11687E0,1.6652677E0,1.26374235E1,1.6985327E1,3.732486E0,4.907116E2,5.107808E1,9.95689E0,3.0599716E0,9.354124E1,5.579064E0,1.207982E1,2.9451263E2,1.5636048E1,6.2238327E1,1.5140367E2,6.7946525E0,2.5058651E1,8.260388E1,2.2315779E0,5.2883953E1,1.9931419E0,9.644754E0,1.2483093E0,5.702075E0,2.414795E0,9.482521E0,3.154903E0,4.6602283E0,1.2325099E1,3.5105705E1,4.556059E2],"tree_param":{"num_deleted":"0","num_feature":"4","num_nodes":"63","size_leaf_vector":"1"}},{"base_weights":[-2.490528E-3,-1.6921936E-1,2.2773322E-1,-4.367901E-1,-9.114124E-2,2.3461244E-1,-3.72029E-2,-3.6610883E-1,-4.6413064E-2,-4.2174663E-2,-8.1377394E-2,1.36363E-1,3.4187645E-1,-4.5637625E-1,3.540896E-1,-1.3400927E-1,1.1052069E-1,2.167342E-1,-2.5227603E-1,2.069576E-1,6.0896945E-1,-7.039107E-1,-2.9484436E-1,5.216624E-1,-3.195226E-2,-9.98876E-3,-3.3261162E-1,-1.8409105E-2,5.0014085E-1,1.6130152E-1,7.13811E-1,-1.0975884E-1,-4.556416E-2,2.4342811E-1,-4.7189094E-2,8.318702E-1,2.3471485E-1,-1.6283015E-2,-4.2342253E-2,-1.615078E-2,-2.2328775E-3,-9.355079E-3,2.8217237E-2,-1.6752067E-3,2.4185132E-2,1.2131569E-2,-1.33948745E-2,2.2700257E-3,-4.9827404E-2,2.1970902E-2,-2.456862E-2,7.2567067E-3,-9.154432E-3,-4.7080354E-3,3.750008E-2,-2.6453558E-2,2.9778443E-3,5.170559E-3,2.8617531E-2,1.6058307E-2,2.854969E-2,1.3588402E-2,-4.7036227E-2],"categories":[],"categories_nodes":[],"categories_segments":[],"categories_sizes":[],"default_left":[0,0,0,0,0,0,0,0,0,0,0,0,0,0,0,0,0,0,0,0,0,0,0,0,0,0,0,0,0,0,0,0,0,0,0,0,0,0,0,0,0,0,0,0,0,0,0,0,0,0,0,0,0,0,0,0,0,0,0,0,0,0,0],"id":15,"left_children":[1,3,5,7,9,11,-1,13,-1,-1,15,17,19,21,23,25,27,29,31,33,35,37,39,41,-1,43,45,47,49,51,53,55,-1,57,-1,59,61,-1,-1,-1,-1,-1,-1,-1,-1,-1,-1,-1,-1,-1,-1,-1,-1,-1,-1,-1,-1,-1,-1,-1,-1,-1,-1],"loss_changes":[5.5036583E1,1.7332825E1,6.372019E0,1.4154385E1,8.164909E0,6.2793655E0,0E0,1.1711458E1,0E0,0E0,6.491877E0,9.892632E0,1.0191219E1,6.1224747E0,5.3952456E0,1.2403631E1,6.9705224E0,7.0910482E0,9.658944E0,1.282924E1,7.7774963E0,6.2788734E0,5.194151E0,6.8829117E0,0E0,1.1687522E1,1.6430262E1,1.6363958E1,1.1165194E1,8.966984E0,1.2310363E1,8.15714E0,0E0,9.36722E0,0E0,1.6046677E0,1.5291752E1,0E0,0E0,0E0,0E0,0E0,0E0,0E0,0E0,0E0,0E0,0E0,0E0,0E0,0E0,0E0,0E0,0E0,0E0,0E0,0E0,0E0,0E0,0E0,0E0,0E0,0E0],"parents":[2147483647,0,0,1,1,2,2,3,3,4,4,5,5,7,7,10,10,11,11,12,12,13,13,14,14,15,15,16,16,17,17,18,18,19,19,20,20,21,21,22,22,23,23,25,25,26,26,27,27,28,28,29,29,30,30,31,31,33,33,35,35,36,36],"right_children":[2,4,6,8,10,12,-1,14,-1,-1,16,18,20,22,24,26,28,30,32,34,36,38,40,42,-1,44,46,48,50,52,54,56,-1,58,-1,60,62,-1,-1,-1,-1,-1,-1,-1,-1,-1,-1,-1,-1,-1,-1,-1,-1,-1,-1,-1,-1,-1,-1,-1,-1,-1,-1],"split_conditions":[5.5555556E-2,3.3717833E-2,3.517312E1,3.3044845E-2,2.0100502E-2,3.6918137E-2,-3.72029E-2,3.2034107E-2,-4.6413064E-2,-4.2174663E-2,3.5955057E-2,5.0114E0,4.8510814E0,2.3698506E0,3.2863848E-2,2.7777778E-2,5.0721917E0,4.283078E0,3.3739004E-2,4.6039233E0,5.079365E-2,2.1373107E0,2.8130671E-2,2.3529412E-2,-3.195226E-2,2.7372263E-2,3.686636E-2,4.465996E0,4.519774E-2,3.4878345E0,3.0042918E-2,5.7712026E0,-4.556416E-2,7.8781284E-2,-4.7189094E-2,5.880806E0,7.4074075E-2,-1.6283015E-2,-4.2342253E-2,-1.615078E-2,-2.2328775E-3,-9.355079E-3,2.8217237E-2,-1.6752067E-3,2.4185132E-2,1.2131569E-2,-1.33948745E-2,2.2700257E-3,-4.9827404E-2,2.1970902E-2,-2.456862E-2,7.2567067E-3,-9.154432E-3,-4.7080354E-3,3.750008E-2,-2.6453558E-2,2.9778443E-3,5.170559E-3,2.8617531E-2,1.6058307E-2,2.854969E-2,1.3588402E-2,-4.7036227E-2],"split_indices":[2,1,0,1,3,3,0,2,0,0,3,0,0,0,3,3,0,0,3,0,3,0,2,3,0,3,1,0,3,0,3,0,0,1,0,0,2,0,0,0,0,0,0,0,0,0,0,0,0,0,0,0,0,0,0,0,0,0,0,0,0,0,0],"split_type":[0,0,0,0,0,0,0,0,0,0,0,0,0,0,0,0,0,0,0,0,0,0,0,0,0,0,0,0,0,0,0,0,0,0,0,0,0,0,0,0,0,0,0,0,0,0,0,0,0,0,0,0,0,0,0,0,0,0,0,0,0,0,0],"sum_hessian":[1.4318029E3,8.305678E2,6.0123505E2,1.8657796E2,6.4398987E2,5.9926666E2,1.9683924E0,1.766616E2,9.916354E0,3.6934416E0,6.402964E2,3.1396182E2,2.8530487E2,1.5731105E2,1.9350557E1,5.0271768E2,1.3757872E2,2.6052676E2,5.3435043E1,1.9073312E2,9.457173E1,6.0793007E1,9.651804E1,1.7872602E1,1.4779533E0,3.1011285E2,1.9260481E2,1.0408766E2,3.349105E1,2.3558002E2,2.494676E1,4.9007137E1,4.427905E0,1.8774939E2,2.9837284E0,5.850452E1,3.606721E1,5.09545E1,9.838508E0,4.5170795E1,5.1347248E1,6.0636086E0,1.1808994E1,2.944996E2,1.5613263E1,2.543732E1,1.671675E2,9.935113E1,4.7365365E0,2.8855865E1,4.6351867E0,2.0128526E2,3.4294746E1,9.776914E0,1.5169847E1,9.755624E0,3.9251514E1,1.7180492E2,1.5944484E1,1.8404108E1,4.010041E1,3.2840122E1,3.2270908E0],"tree_param":{"num_deleted":"0","num_feature":"4","num_nodes":"63","size_leaf_vector":"1"}},{"base_weights":[-2.6182884E-3,-1.8369767E-1,1.9758041E-1,-4.255107E-1,-1.0344386E-1,-2.2591579E-1,2.2554313E-1,-3.563664E-1,-4.5508206E-2,-8.687463E-2,-4.1710015E-2,8.221212E-2,-9.9725664E-1,1.0300055E0,2.1132097E-1,-4.5654467E-1,2.6171765E-1,-6.77949E-2,-9.207552E-1,-3.9277E-1,5.1314956E-1,-4.76132E-2,-2.8788415E-1,3.3238497E-2,1.1152131E-2,2.6841652E-2,2.7205816E-1,-7.1553856E-1,-2.911748E-1,-1.4573997E-1,9.098172E-1,-8.786448E-2,7.175653E-1,-4.552816E-2,-1.527766E-1,1.3386679E-1,-4.396527E-2,9.425985E-1,-5.6213573E-2,2.9661069E-2,-7.282024E-1,6.886166E-2,-9.708693E-1,-8.879992E-1,2.8732407E-1,-1.0566239E-2,-3.035329E-2,3.9355787E-3,-1.3339917E-2,7.246161E-3,-4.279417E-2,3.7543196E-2,1.5039852E-2,-4.4248085E-3,6.341085E-3,3.5813414E-2,-4.2323708E-3,2.0895965E-2,-3.7482306E-2,1.5597467E-2,-3.772455E-2,6.3757743E-3,3.2851577E-2,-3.5863344E-2,1.4789279E-2,1.4468322E-2,-4.086811E-2,7.244052E-4,3.2519583E-2,2.1608582E-2,-4.7914878E-2,7.467613E-3,-4.2975128E-2,9.101704E-3,-1.0711253E-2],"categories":[],"categories_nodes":[],"categories_segments":[],"categories_sizes":[],"default_left":[0,0,0,0,0,0,0,0,0,0,0,0,0,0,0,0,0,0,0,0,0,0,0,0,0,0,0,0,0,0,0,0,0,0,0,0,0,0,0,0,0,0,0,0,0,0,0,0,0,0,0,0,0,0,0,0,0,0,0,0,0,0,0,0,0,0,0,0,0,0,0,0,0,0,0],"id":16,"left_children":[1,3,5,7,9,11,13,15,-1,17,-1,19,21,23,25,27,29,31,33,35,37,-1,39,-1,-1,41,43,45,47,49,51,53,55,-1,57,59,-1,61,63,-1,65,67,69,71,73,-1,-1,-1,-1,-1,-1,-1,-1,-1,-1,-1,-1,-1,-1,-1,-1,-1,-1,-1,-1,-1,-1,-1,-1,-1,-1,-1,-1,-1,-1],"loss_changes":[5.1931934E1,1.4553022E1,8.107784E0,1.3579792E1,1.194934E1,1.0216255E1,7.09E0,1.1095694E1,0E0,8.84631E0,0E0,6.627175E0,4.6677094E0,1.4419365E-1,7.0391216E0,6.3406906E0,6.8294353E0,8.708303E0,5.472846E0,8.952525E0,4.1835027E0,0E0,4.532137E0,0E0,0E0,6.6436515E0,8.631687E0,5.9832478E0,6.2174873E0,8.495094E0,7.579565E-1,9.589991E0,5.8015547E0,0E0,6.975015E0,6.72989E0,0E0,8.4533787E-1,5.724049E0,0E0,4.969345E0,6.8491564E0,7.9356217E0,4.3112125E0,4.949276E0,0E0,0E0,0E0,0E0,0E0,0E0,0E0,0E0,0E0,0E0,0E0,0E0,0E0,0E0,0E0,0E0,0E0,0E0,0E0,0E0,0E0,0E0,0E0,0E0,0E0,0E0,0E0,0E0,0E0,0E0],"parents":[2147483647,0,0,1,1,2,2,3,3,4,4,5,5,6,6,7,7,9,9,11,11,12,12,13,13,14,14,15,15,16,16,17,17,18,18,19,19,20,20,22,22,25,25,26,26,27,27,28,28,29,29,30,30,31,31,32,32,34,34,35,35,37,37,38,38,40,40,41,41,42,42,43,43,44,44],"right_children":[2,4,6,8,10,12,14,16,-1,18,-1,20,22,24,26,28,30,32,34,36,38,-1,40,-1,-1,42,44,46,48,50,52,54,56,-1,58,60,-1,62,64,-1,66,68,70,72,74,-1,-1,-1,-1,-1,-1,-1,-1,-1,-1,-1,-1,-1,-1,-1,-1,-1,-1,-1,-1,-1,-1,-1,-1,-1,-1,-1,-1,-1,-1],"split_conditions":[5.253623E-2,3.3717833E-2,2.1912351E-2,3.2608695E-2,1.3207264E1,2.130898E-2,5.381166E-2,3.1847134E-2,-4.5508206E-2,5.206738E-2,-4.1710015E-2,6.521739E-2,2.173913E-2,4.155844E-2,5.882353E-2,2.3698506E0,3.5570128E0,4.79798E-2,3.184163E0,2.9731145E0,7.1428575E-2,-4.76132E-2,1.7647407E0,3.3238497E-2,1.1152131E-2,5.83691E-2,1.5407853E0,2.2E-2,2.857475E0,2.676399E-2,5.0721917E0,4.9152856E0,4.976672E-2,-4.552816E-2,4.9152856E0,5.9859157E-2,-4.396527E-2,1.9804345E0,2.0661157E-2,2.9661069E-2,2.1768708E-2,1.57391205E1,2.5462963E-2,2.5316456E-2,6.995885E-2,-1.0566239E-2,-3.035329E-2,3.9355787E-3,-1.3339917E-2,7.246161E-3,-4.279417E-2,3.7543196E-2,1.5039852E-2,-4.4248085E-3,6.341085E-3,3.5813414E-2,-4.2323708E-3,2.0895965E-2,-3.7482306E-2,1.5597467E-2,-3.772455E-2,6.3757743E-3,3.2851577E-2,-3.5863344E-2,1.4789279E-2,1.4468322E-2,-4.086811E-2,7.244052E-4,3.2519583E-2,2.1608582E-2,-4.7914878E-2,7.467613E-3,-4.2975128E-2,9.101704E-3,-1.0711253E-2],"split_indices":[2,1,3,2,0,3,1,2,0,2,0,2,3,3,2,0,0,3,0,0,1,0,0,0,0,2,0,3,0,3,0,0,3,0,0,2,0,0,3,0,3,0,3,3,3,0,0,0,0,0,0,0,0,0,0,0,0,0,0,0,0,0,0,0,0,0,0,0,0,0,0,0,0,0,0],"split_type":[0,0,0,0,0,0,0,0,0,0,0,0,0,0,0,0,0,0,0,0,0,0,0,0,0,0,0,0,0,0,0,0,0,0,0,0,0,0,0,0,0,0,0,0,0,0,0,0,0,0,0,0,0,0,0,0,0,0,0,0,0,0,0,0,0,0,0,0,0,0,0,0,0,0,0],"sum_hessian":[1.4305306E3,7.5117584E2,6.7935486E2,1.861088E2,5.65067E2,4.163979E1,6.377151E2,1.7626834E2,9.840449E0,5.58938E2,6.1290474E0,3.0392355E1,1.1247433E1,9.837611E0,6.2787744E2,1.5190855E2,2.435979E1,5.474923E2,1.1445676E1,1.449949E1,1.5892866E1,5.4654875E0,5.781945E0,8.185275E0,1.652336E0,1.558749E2,4.7200256E2,5.7900627E1,9.400793E1,1.5432541E1,8.92725E0,5.3471594E2,1.2776342E1,5.8911476E0,5.554528E0,1.0312173E1,4.187316E0,8.685895E0,7.206971E0,1.163438E0,4.6185074E0,1.5046867E2,5.4062214E0,5.38814E0,4.666144E2,2.6988556E1,3.0912071E1,2.5095947E1,6.891198E1,1.2472428E1,2.9601123E0,3.737751E0,5.189499E0,4.4628973E2,8.842622E1,7.9672794E0,4.8090634E0,3.3358562E0,2.218672E0,8.562672E0,1.7495021E0,1.9140275E0,6.7718673E0,1.961441E0,5.24553E0,1.6699151E0,2.9485922E0,1.4510095E2,5.3677087E0,1.420479E0,3.9857423E0,1.9206655E0,3.4674745E0,4.5577954E2,1.0834872E1],